7.761035797852929E-4	9.30941520381233E-4	4.435533593922583E-4	-1.8283134936899798E-4	0.0011400350869045896	2.6020658136343376E-4	4.897186801304605E-4	4.985338842483803E-4	-4.924766763946369E-4	1.2115361195466882E-4	5.20649437413515E-4	6.480948379836027E-4	-8.497871633601253E-5	2.539466912757007E-4	-1.1494241977147111E-4	0.0010880590283119719	-1.0353849011387619E-5	-0.0012706411166197096	-1.0382173709188431E-4	3.1472321493162365E-4	0.0020215119225150614	-0.0026501677825203165	0.0037030204810781647	2.408361366097787E-4	-0.012287494178515863	0.003297670610235566	-0.003184884239118789	0.0162833382561812	0.002573781162338646	0.007619545166102773	-0.01671486775103544	-0.01754866829244565	0.007551042219945152	0.028767870696435365	-0.030653446145827788	0.12326232697504645	-0.06253789861576702	-0.13961485187098394	0.0060721690591551735	0.1261051134589114	-0.13119483631849693	-0.07538498639615936	0.15855959054341534	-0.11166289665722917	0.251678487018035	0.1461721065069975	-0.1336820359595205	-0.2946459162067583	-0.28840976374786526	-0.1429075238540454	0.2156661538142811	-0.2508067200445447	0.7576206885903682	-0.03843254163237385	0.23241477057955687	-0.22213626717349064	0.3368892174339775	0.07948125122645265	0.07792290999219229	-0.44346394311992154	-0.06952502827874667	0.15102308424542943	-0.17934548046800625	0.09120313175231638	-0.24830394915195492	-0.009147030408544168	-0.27554226448380925	-0.02509957177516711	0.23358873659979074	0.04841930432588952	-0.334522801306574	-0.171711760068911	0.15349184478428476	0.2939769402614339	0.5159211541772318	0.3929090571530441	0.5156699890591173	0.2544372958613199	-0.10359639114359163	0.2893736752740019	0.29439054809129983	-0.5398052757682138	0.5323685663726557	-0.6608188124240343	0.322973350410881	-0.07216468146593834	0.04345217479710637	-0.5795202411229041	-0.20876951767236532	0.0698305291840636	-0.6267281636147163	0.35614708196475786	0.36575162278229967	0.4785773230289715	0.6309339412906586	0.30729565143996845	-0.44212135945239234	0.0467529059714288	0.004479272673186658	0.2996495951216828	0.30728930293548895	-0.0686209344485075	-0.02171001703539087	0.08653942458426886	0.05705221989396095	0.03231817878916297	-0.014712168539726032	0.00802392702563655	0.018763577004194402	0.03142266626981597	0.03836375860683852	0.031178232289624054	0.02121059554687368	0.02432072202465001	0.021546510747878944	0.016534098569961315	0.003042962574689952	0.007355557567746276	-0.024425814503031777	0.023448373726157587	-0.001634706973058439	0.03308260232354179	-0.011064038989961517	0.019994321010212465	-0.03063243869890741	0.037441482196409234	-0.0359810490386953	-0.004644733127092603	-0.08920426102202388	0.04922822831560773	0.03784154832031679	0.08635520046625697	-0.050263186712432885	-0.03494959133016008	-0.02196021043402205	0.06650014364042055	-0.017261617059307007	0.049770135597637474	-0.13210157416281768	-0.1859921281264039	-0.15984698460062904	-0.004355029644660433	0.2463503944745441	0.1675461732149108	-0.4080152484904312	-0.21654924328275346	-0.0527692357982046	0.00684598550289668	0.12162431199250401	0.08479781611098476	0.5040769078492731	-0.02783645709688272	-0.0252654894825023	-0.24903107991758142	0.12161631734900057	0.14689681272537822	-0.49893940274564486	0.07276214589450919	0.26076896702297625	-0.09455551515125304	0.1323824081508781	-0.43082664833044515	0.31850474009292495	0.2101251734538601	-0.44269259732303623	-0.40502550023336403	0.4509181169264211	-0.010346769643709241	0.017643940821484898	0.7635284349583685	-0.0718921422183001	0.2238293400454614	-0.28998343397234566	0.024599308668659486	-0.36163280180770135	-0.10514334731824655	0.31474360605466917	0.3887053809472524	-0.1070003514801649	0.2058936747795354	-0.17053751165928044	3.627818213871796E-4	-0.4988000102278736	0.28836905410919966	-0.17647303412826992	-0.2985184334678075	-0.18386679868695538	0.4238346926065523	-0.34759812466613305	0.02026985276516303	-0.19083237748020276	0.3438400472128648	0.5397460247518396	0.04935426811897408	-0.1626084075726566	-0.29207665994451326	0.47333182761045745	-0.4999591299174672	0.31699050462977585	0.38351502486862715	-3.7987778695446333E-6	0.9976939389613515	-3.927203414815095E-4	-0.0010277663781796756	3.337503428513826E-4	-5.396425790272309E-4	-5.909411824287735E-4	-0.001026716266732207	8.361896466813586E-4	-4.472996449416636E-4	-8.827386785394197E-4	6.657348246606484E-4	-6.947047016189998E-4	0.0011460296290731527	-0.0012036378460114152	1.426746810023079E-4	-2.8300002228371333E-4	0.001070155251610113	-1.821692999380542E-4	-0.0015573756996624406	-6.265560502510226E-4	-0.00576155490968513	0.0014259708637546274	0.003866395564346115	0.009303720104320842	-0.008256457402303774	9.595646871685733E-4	0.004291716750167471	0.02040456977805399	-0.020250905320966083	0.036478136825719015	-0.03031733731387203	0.047573969961217835	-0.06202300636398359	-0.0460697080425383	-0.021661886755637984	0.04682814171005067	-0.04734424589071062	0.06616578288706242	0.07048967165960647	-0.09015937806235878	-0.10062497304610843	-0.11483606479472022	0.2748261176016812	0.04612550329223003	-0.18090460317065082	0.10003070919961032	-0.10537314527821795	0.076153287258375	0.4602689572779051	-0.01231041200915304	-0.2436272543596452	0.23366006168302816	-0.15905090788834483	-0.09590508131138886	0.060801251141978305	0.31979897107315747	0.44607663396401526	-0.18317061376346314	-0.2721956322507493	0.16328536031425975	0.08254267336859182	0.3879706712989688	0.40290486658489305	0.011418260141917734	-0.06775725366721531	-0.035283773559528456	0.22083592691096984	-0.0547704398479139	-0.5795774085116504	-0.5231355011277591	-0.05991564681037686	-0.440071919940079	0.20300305897736806	-0.09507155028031891	0.8540015444501132	-0.16067587913899226	-0.16772632748924374	-0.1191370916558043	0.38563988744166366	-0.3716108088216483	0.1335788577216832	-9.10709199476808E-4	-0.4563936456672646	-0.38459932272564995	0.14705752426861404	0.6257338081388029	-0.44222302151067927	-0.27352747748163814	0.16394337241784823	0.3684685821197917	0.39653325657518923	-0.19404451978691828	0.45229765597161387	-0.3726702046928976	-0.049767585344668075	-0.421685284891811	0.010692269141360825	0.050172590839187126	-0.30333257622079013	9.074980277527726E-4	9.953462325436057E-4	0.9974667021827679	3.893480564361455E-5	-0.003843744526344755	-0.004393486718360258	-9.590918085136679E-4	-0.0028276788303329735	-0.0012128363709231513	-7.368031690339591E-4	-0.0010778101595285948	-1.7150453990535475E-4	-0.0018526952964359135	-0.0024490632266053873	-3.9246176204524086E-4	-0.0025432498408725713	0.001930775212557257	0.0015880388348183973	-0.0011818368144882714	-0.0039060943341844632	-2.0927199950894945E-4	0.004931413752894382	-0.010037291555093988	0.010950243417940332	0.0018976441331119889	-0.010543934053523224	0.02100039981076211	-0.002784129470522745	-0.0021971561962145134	-0.03831065639623855	-0.02127384871900392	0.025838824426174665	0.01362752877930634	-0.05622050587374686	-0.04600302178971474	0.1098522809603755	0.04465424484184625	0.026119989491562474	-0.10639888833729817	-0.08220827198654934	0.1312458895078346	-0.07057083101843073	-0.057218084443051896	-0.3333588620464093	0.35052922190125924	0.46815795393119114	0.3606272290643209	-0.10823902398046994	-0.34668075516277497	-0.23566356207868266	-0.16397666513914128	0.38729788397104886	-0.020471435530226487	-0.3473684946063988	0.4038888677346407	-0.36330019972600297	0.16580521552741365	0.2250498202756323	-0.14312359435118205	-0.03960208951242151	0.23784156874449824	0.18825482136226823	0.45061861578586254	-0.014984713025588734	0.1568765322584684	-0.1833553903711082	-0.10067064279631613	-0.07284800019583201	0.3638330952834687	-0.3184663601472356	-0.29902905590921897	0.3034908576350273	-0.16076770593510975	0.35409364240395813	0.3157410328270456	0.3006658357734989	0.1601822327244261	-0.26265396575264754	0.3859623462542885	0.4895791831575635	-0.6766166829205428	-0.17645516619081664	-0.18161862537514792	-0.3457652217936263	-0.6777911106507685	0.51129322102082	-0.4793095822936311	-0.19326803870364184	-0.08858781732267862	0.36211065910815315	0.09354199722356962	-0.1453246542688546	-0.569767321476587	0.4599249862007803	-0.2759913013066788	-0.12157027457900842	-0.1274062409025666	0.18032384287511732	-0.3195480741135583	0.3711259134693275	-7.028852385287678E-4	-0.008678905751046346	-0.0013604087101715598	0.9972088807701306	-0.011059856139938326	-0.0035782141960042737	-0.012313208038405772	-0.011117163692642217	-0.010310361691178237	-0.006524711914260669	-0.0082214255244346	-0.0024717970926955014	-0.0046160681477069735	-0.00166098523478245	-0.002053749038629954	-0.002453290608393453	-0.002485275348701051	2.325584124813447E-4	-4.0691829948105994E-4	-2.7719874856389597E-4	-0.001673481976365262	-0.003821872470124838	-0.0020506875451892772	-0.0018216440074363528	-0.003932205308680699	0.002126330831548188	0.001801647433900509	0.004082411233767869	0.02176174791975217	-0.02161714539790237	-0.0035806235158094427	4.5750534638145095E-4	-0.022450447498550196	0.019924679347246694	-0.020518565811355263	0.03667126969777516	-0.014667820704779608	-0.09419726659104559	0.04609360359145963	0.06260630324942658	-0.008859286347836035	0.025802168602579178	0.06748540938813902	0.0199004760899218	-0.04842822572200607	-0.2687432193014193	0.30105885622710593	-0.23249042878188206	0.04587493026837733	-0.09873515632047761	0.26121056696472356	0.24827083526502605	-0.02369472143303636	-0.5133472666436242	-0.41423141868618263	-0.3409568844020928	0.07286657491896474	0.6123441425587189	0.3587426501815535	0.1603141352473347	-0.005875171154383572	-0.04710145983003449	0.24895387030971478	-0.3403964242305572	-0.3242943894255631	-0.07634158759839696	0.28605757018542993	-0.10904305708007452	-0.1746499764634757	0.33804027540769266	0.3880488981543619	-0.2252450059096943	-0.19453241427209503	0.31710868949448445	0.22233719592085452	0.5738653955170898	0.09961465490734399	-0.20894200388171094	-0.4683131078033416	0.3578645501108292	0.42535094296695786	-0.14008467926331097	0.13320037123198944	-0.3460811725044799	0.16906776709521792	0.22433014159416964	-0.34191622109241043	-0.5200866289701132	-0.3530731711120628	0.12877469094032631	-0.3965209478841523	0.32192783040811207	-0.31961889887971706	-0.2137160353742607	0.1537594609458637	0.21438444051355773	0.25348766841414194	0.518480909048833	-0.35681899994068533	-0.2857068290656483	-0.009465771719514033	-0.015710340093840296	-0.020274002768561714	0.024452956310912818	0.9728512539397485	-0.020685946320911464	-0.0026330092273025513	-0.023667911190875607	-0.026498960005532153	-0.02537372543857161	-0.014546482753349476	-0.017211681291827697	-0.013950179908119075	-0.014168742719223965	-0.01094323846392496	-0.006138355351856914	-0.0049807291188850725	-0.0020012772232236445	0.002912452865676381	-3.1524810192266173E-4	0.005337951855464511	-0.008919575147897839	-0.0018783053819505036	-0.010965032707608433	-0.01523979541516103	0.005105867407726537	-0.010283985451607936	-0.003758939016676743	-0.0047943929345410025	-0.00430639588612759	2.8110364924103544E-4	0.05289004627067842	0.11274865641355492	-0.059218898577204616	-7.176425843648367E-4	0.05978950356271013	-0.10464809849261464	-0.08476655562595069	-0.16384650773059142	0.08391025789599448	0.06489101855233172	-0.014472981549397914	-0.12716117571407926	0.3887882897663109	0.13183237961576857	-0.46837232860724537	-0.0722766079805802	0.12559739971082906	-0.13542284738480295	0.15333590234954853	-0.45092368739330413	-0.1910342297174929	0.49894194620338334	0.03226410499326622	-0.2389250586608105	0.09623045826646741	0.20199925931898438	0.3224853744640924	-0.017406351187185667	-0.10440273467840608	-0.30391779926011275	-0.03950584099500156	-0.5287336531256023	0.06887988177951247	-0.1056090862272893	0.2946966232766198	-0.08650548820666616	-0.05754776647728661	0.04689923428908973	0.15725372656106043	-0.10490118152571633	0.07486235413478763	-0.19683799055440104	-0.38702822183344543	0.04483193860810757	-0.5628078002225418	0.11637401365299481	-0.29134768915770826	-0.20970456032106796	-0.3650381224181077	0.36496351466408283	0.15195394940839366	0.3075753846243718	0.271711748253181	0.12795822677350593	0.008488150611180457	0.3974982686063994	0.16794574002397816	0.005052561419502556	0.041849032630902706	-0.030973774142467953	0.26263019523669856	-0.25032115839573277	0.13648070657564124	-0.15954825546291393	-0.047656561907534166	0.5359671974209549	0.21251058032501258	-0.16296155394985742	0.43836392569516164	-0.012641469104858893	-0.02166601666572497	-0.035083457373164546	-0.07520832043793248	0.10449590314936154	0.9679865318272477	-0.03981469926543895	-0.030106647106087167	-0.04603969230345836	-0.045680303015157464	-0.030843407837743274	-0.029242043549448343	-0.02476583164552068	-0.018805388313617975	-0.022361905958251785	-0.01615078555933402	-0.007266705186074155	-0.012841169126125094	-0.0036693309258400753	0.004503987896258935	-0.004177838316766656	-0.007638052414769854	0.0051177304754962795	-0.017356664259159053	-0.014036720609053126	2.744352797722919E-4	2.874478634371891E-4	0.03018568805554556	0.039251291921004565	-0.02779932027689381	-0.0056737034941260105	-0.015824932246560352	-0.041739892971506536	0.04954204948986986	-0.1018826522617203	0.045574933949389385	-0.030792560463574814	-0.11704515307703584	0.08770036382057249	0.05652762967024188	-0.011697205162104663	0.260788011783989	0.24800100547856593	-0.30604160625004684	0.12737552572762123	-0.2745291281395975	-0.22156313401769503	0.035083502961236926	0.06495385825348701	-0.4269157138598714	-0.503979547759021	-0.06116148153697446	0.11336439617055266	0.26661434901078807	-0.12299080047433332	0.16160991070913636	0.34299959201843827	0.08665472343079016	0.28074598238788184	-0.30910457019409865	-0.07982253010229795	-0.015261301630730344	0.16544742631397322	0.41383601841840134	-0.37546031078627984	0.31217697390804505	-0.007402508715832834	0.044243689748188014	0.2606418603321375	-0.189034723332441	-0.040988414897171505	0.13989805882960424	0.40611203055564876	-0.15781096859753022	-0.27441915223203034	-0.11749103594604028	0.130819789530801	0.682799008174223	0.053482008601903164	-0.3537647277129806	-0.3026603014993527	0.2712261900124659	0.43360175814603197	0.01410814579210883	0.007466856707160573	0.08660754188382008	-0.416548517486676	-0.044924738331487656	0.18782116501961513	-0.22497530899817028	-0.5483964719105872	-0.05883287161542232	0.04274058389228686	-0.11973997618818259	-0.2930105697216227	0.3280474360739017	0.16135887106901342	-0.08076284578974331	0.2727626953211562	0.27344734438145674	7.129691482821329E-4	-0.02045120375435964	-0.03459650637176668	-0.04469629552718923	-0.11201764358687927	0.15098838351743807	0.9014545960138785	-0.0869014859412313	-0.03182864816374203	-0.03693551187003175	-0.022658932418337108	-0.024930111631516233	-0.019584840495664783	-0.021813475463351772	-0.02307048831311356	-0.013530200572513583	-0.01849121343339926	-0.007134421266069196	-0.012683860589174204	-0.012034237338132385	0.004445581102303906	-0.008743776591941498	-0.00948047874778642	-0.019320519668243028	0.024784026530447895	-0.00570316170765059	-0.034219493441711595	0.014444648330641083	0.007132840330269313	0.033975528964512114	0.045943708000420934	-0.11185767786840456	-0.0010489306385977558	0.15070794544219437	-0.12286142667194637	-0.0927302982079073	-0.011677231529209665	0.0493155199117262	-0.05930451148412908	0.2784665868637745	0.15870144259287772	-0.5253390119798707	-0.07465787480947114	-0.07978775901276777	-0.02873613714852212	0.3751716214258668	0.3676108442146775	-0.006229924221609326	-0.38501510289805113	0.051165609058919606	-0.10699031044249328	0.15463826788921353	0.4974292172312622	-0.3891434714502327	-0.28621179391600804	-0.014027210843062793	-0.05429712075051687	-0.3032444795505533	-0.22242116861151048	-0.10051793960736033	0.003978517549824012	0.07774821989580923	-0.27586037135095726	-0.3896432916698192	0.45485204618409086	0.13953776006148455	-0.15748229289904125	-0.31536367423223793	0.3541831269513291	0.06937822312101188	0.1396145522511211	0.41128103983557	0.39314274440863106	-0.022917424673449226	0.19600946868665728	-0.010755621390123397	-0.29810497651926027	0.3409849392972821	-0.10220268124593022	-0.43338926096279806	-0.16719347465812603	0.5597095172233467	0.10821517937453233	0.41235779103896614	0.18763125592875207	-0.32546135215864785	-0.18486143985169826	-0.33623265649169864	0.20228275243461005	-0.3517427446528333	-0.6796229527163957	-0.18078780764471658	0.7021924769094408	-0.06948733537222176	0.09808249842880275	0.26613985655507344	0.46671906970443644	0.13792143108777846	0.48505669904321197	-0.24230784305044356	-0.010922056561596657	-0.028506678210806376	-0.05436027813334916	0.01345723431764684	-0.15013055421737823	-0.19598741965716482	0.21228652400449677	0.8011776385335119	-0.11816478874482153	-0.08665979988188487	-0.03111312665611736	-0.049786060624745984	-0.029886711697155444	-0.039048501273203536	-0.03605340802259623	-0.022988753348159478	-0.020266746897441616	-0.008055393139604183	-0.0068023221684853094	-0.01983989017626335	0.0037270644386830356	-0.021456011248864343	-0.019175677414553068	-0.004908282495204056	-0.019358691936836956	-0.012562433295682879	-0.029023225641969193	-0.014730265277496846	0.01851653151960637	0.021335947183256196	-0.00118599434572758	-0.03789596353391283	-0.06358130733690624	0.06074150118439074	0.08552451945608312	-0.04830437150855036	0.20995450102141405	-0.08056565622278236	0.08734484325257777	0.014427654572573896	0.07618585637332541	-0.33165108155472833	0.08550527238144076	-0.13098345258361538	-0.2402640962460731	0.29471594850574995	-0.10743980495038405	0.25389164383183677	0.24164545064527854	0.0531849980662706	0.07130486927904739	-0.10505485697046778	-0.05386770466579058	-0.16043057517968276	0.44796588675572274	0.006217194328182195	-0.1434744303092236	-0.1291241273272056	0.26133572907846864	-0.5452740453329279	0.12138399562790941	-0.42508031469897534	0.09974187948631111	-0.010977468412092219	-0.17505984081196882	-0.24481087960700518	-0.24313378657653925	0.10064944572766918	0.30970527252441016	-0.023113568931762668	-0.12130582092900868	1.0370181506028833	-0.4945132409866047	0.7502051883891369	-0.17826708545313324	0.2375302801556156	-0.2523635906224375	0.024931468388252935	-0.4079450681693151	-0.18309825190433776	0.24422943185288304	-0.034989851267559234	-0.22982597715572328	-0.11706219174817796	0.21274382986364182	-0.5981116097770586	-0.06451327534017372	0.08966075554619928	0.29287600134462144	0.18194782621940214	0.28487694290404203	0.4048383907950008	-0.16053194222106906	0.16099502710637367	0.2393777224542042	-0.39298587032158394	-0.0502356891207458	0.7372404285639891	-0.15985934833611334	0.5241268797202326	-0.0021182879066797013	-0.006431055002723397	-0.052333263916233067	-0.10476757016636994	0.0075449864098189766	-0.17745857185413122	-0.30459411884770665	0.2400880115407986	0.713975520545325	-0.12211529780476338	-0.09444787834019032	-0.027553704491476257	-0.029324091494539264	-0.022161828067989244	-0.044576333966686164	-0.045134313621350584	-0.01961725466657509	-0.0251683315645033	-0.009225266429642295	-0.006568718507932006	-0.026037706111063794	-0.02880810805934901	-0.0053518518058694	-0.020562452145544786	-0.00469278979224084	0.016634615858502202	-0.08663680791920159	-0.013416979166705851	2.537960147769076E-4	0.008115956304699374	-0.03936005432094046	0.06585783018304016	0.035472526762386505	0.025972367664992294	0.10147983420430584	-0.06709757188870152	0.06079981952158791	-0.006787292117326439	0.03032243609227383	0.0786062898823845	-0.11041021227050496	0.07564224386957825	0.42430247949288896	-0.23944380713259125	0.017384760628090565	-0.10858524250577498	-0.4086308598270565	-0.22750624127848154	0.19838441709546256	-0.1295864429867885	-0.03920791322833924	0.38100092200341884	-0.27344434749808433	-0.4928814078164145	0.5598931725034586	0.2740613810423028	0.5998092512175419	-0.10065480854030692	0.23705026037887436	-0.5274429518519776	0.053297386584717776	0.31390180689997194	0.02934356427050627	0.1879220594272601	-0.32872145541637937	-0.2613021162074758	0.4355912040016978	0.0706268035330057	0.14816870245499433	-0.2750477939012077	-0.42962594094566775	-0.3083704398288452	-0.06855717209724468	-0.32996456780097644	-0.03639919096980484	-0.06761328345198062	0.4570099884192258	0.4582925251111747	0.3474765864491278	0.44257021473762326	0.6426526728856444	-0.11767679451099713	0.2857603763597513	-0.21814303598206686	-0.40719087952922933	-0.6590398800352606	0.2969195551330062	-0.3666278199012717	0.5907792212580012	-0.18585630126978853	-0.16555566448217957	0.1609201577040004	-0.11304615033092036	0.26196577796875775	-0.10838197126923783	0.2995692219239003	-0.13785431769808956	0.5196218448624698	0.3594459530511316	-0.12394488347310573	0.007498239346893652	0.013262500652419811	0.003458864175965063	0.0064608195004790805	-0.19176611116981435	-0.04108240622157738	-0.08911649971720433	-0.3939415750475151	0.28522565514958326	0.6076789036342184	-0.06619763786629881	-0.09369625921894682	0.016942187917707227	-0.017949091603786122	-0.021396411842979773	-0.05537347130843774	-0.05495219341375885	-0.03226043948521855	-0.02879069750142175	-0.034877363075824	-0.002783510215463659	-0.018196218957751528	-0.045688450467774984	-0.042585967511017925	-0.010706428082946886	0.016891328663216937	-0.08206323665092825	0.017311025085299185	0.06673719202816406	-0.11985358263265602	0.07589550264346798	0.06272226788723193	0.09809935384185536	0.09898108204569786	0.05722532147440537	0.055344082143206616	0.021057851576851784	-0.18021133212381554	-0.18310088965905028	-0.05346037470007382	-0.1210592730896032	0.01288688262229653	-0.12851859027355875	0.14159415916546475	0.34675398863756135	-0.10044923191198493	0.23310305489736946	0.1820625271446024	-0.18800479933472922	0.20963405057476694	0.4290556805565859	-0.27615500071785104	-0.024544861013577633	-0.5610281117334577	-0.19043948849913134	-0.1444035821671578	-0.15872246247477717	-0.3187236957562711	-0.19258317698702312	0.13361991618267144	-0.17219567057558496	-0.41167008704848035	0.5178644322151637	0.2514165238171938	0.21811582591280843	-0.09088504812567665	0.40491882109019794	-0.17253085495915285	-0.45543063041221443	0.5034415514944804	-0.6996490958401957	0.13461556190445925	-0.17347051585527185	0.49227405364856186	-0.45672316724500883	-0.13915306707264982	-0.19259948949374095	0.5543248072128386	-0.3913652380823482	0.4167866353912702	0.7526461058439371	0.2248525439582799	-0.06629813668341482	-0.19442455028079197	-0.35996802380435083	-0.11205694909370753	0.4343923670138075	-0.4278802205160683	0.20913119173103512	0.34568693095470554	0.18958561235804455	0.3763727083350439	0.6809021730320443	0.12445642868509421	-0.24344111964278886	-0.028267753091987313	0.2388240300803491	-0.029199261891968274	0.18360449179790805	0.4131638814646036	-0.0146598879556086	-0.031039192858183653	5.900770510028868E-4	0.058314335340699	-0.06684472259904647	-0.262782869074079	-0.05790032030304948	-0.01973179224982257	-0.43422011387248943	0.29294553270030965	0.49300982190071024	-0.06772997402885221	-0.09344302260670748	0.02199057091528991	-0.02894239899452597	0.01149023143560181	-0.038911473566708946	-0.05195038556095869	-0.033900879024032146	-0.021840263024001196	-0.0077193083631472365	-0.0385293430929659	0.0024495812911648845	-0.06890551219085629	-0.048205000647480484	-0.02462507893077012	-0.0035398305977468103	0.008670246215348277	0.02658050576554051	-0.05673490067156526	0.06228683101255033	0.049634160569704704	0.03360453178357789	0.0201714358488083	0.06972561369027018	-0.1892123467189543	0.3274193315734599	-0.15323268326926082	0.26369763869219065	-0.0032568748537934065	-0.24990086975282352	0.17683851001610384	0.19875516955151873	0.019204376219289703	-0.2043208658076858	-0.1835893666688703	-0.008314471016740368	-0.5621863574529166	-0.03989906590305994	-0.1218846158167379	0.04569386954797579	-0.13858689771304208	0.7931344378948856	-0.36675061474819115	-0.39182290883188925	0.21861959546849027	0.6270320961067315	0.10003891376205064	0.6104904919643142	-0.6472450097300694	0.4237473831226297	-0.2597756998903527	-0.21742776321523705	0.32162054426013614	0.14438533248924154	-0.2592561982551936	-0.17115071890565134	-0.020481096077259505	0.19923328416609562	0.6650057098777957	0.16840768234614895	-0.16836026977996715	-0.16010231198135905	-0.042395328365862815	0.12478086781470324	0.16302595601617603	0.4225797899768308	-0.20104982307222388	-0.6373775736790566	0.05823959458587185	0.820908558662603	0.6055680916514334	-0.10345471989415463	-0.6884267547800004	0.7196544736637851	-0.17343913480380604	-0.6793880942794984	0.3450276287280152	0.16649383857731626	-0.04298265748182896	-0.050875909798552665	-0.26621008546812663	0.04590428710181286	0.20498965060640112	0.6898828080513744	0.6072538223246895	-0.26782724851475487	0.09550601229475095	-0.10032160287366496	-0.3617948094517294	-0.020202467319423205	-0.02362544227646756	0.02636798157567389	-0.051995899845954555	0.1600653890401185	-0.04246107561975106	-0.23037251974803974	-0.009045274721555823	0.0047232655508563605	-0.42319610749163866	0.23171246891297875	0.3552016680340129	-0.07046940179134753	-0.10552642873589763	0.025925194167801445	-0.007607199285574918	0.008621048615927175	-0.017143415984376086	-0.03361676508080814	-0.015438306106179848	-0.028480758901357806	-0.10304693220233573	0.0887581840263235	-0.07982573883258672	-0.0074549969253268145	-0.06343389521417422	-0.03209092652033698	-0.09671773830254186	-0.039371669820127006	0.027486578439263578	-0.057972200241103077	0.032463631295247077	-0.025276025835150297	-0.05937583819169811	0.12445308191071094	0.28208871328362184	-0.01342564750618806	-0.06358016662311558	0.02995682417869182	-0.2682186072236694	0.4064542510874719	-0.38563562968980075	0.1316304054808216	0.24141425065609018	-0.24424270942588105	-0.08481531549981458	0.4618681147077614	0.10985532728650814	-0.06459370690901868	0.20013298473351906	-0.05007901305833032	0.23777387179435627	-0.04266640215160404	-0.12115455964262221	-0.15331151009766528	-0.0162578412710211	0.3699219584381824	0.5444716195932833	0.007307186540078599	-0.43711786505201966	-0.22576336915339404	0.17534687411005886	-0.05154327077903227	0.44341905010914856	-0.293688872243397	-0.031810972673148315	-0.4481509769966025	0.2429916836832286	-0.2592780595553757	0.8291181042292551	-0.996228742598914	0.6171535099758605	-0.12221749280774849	0.39452690669254664	0.544022520131067	-0.14403590962472199	-0.12870938320932973	0.14173978265738998	-0.30593805351534736	-0.5211902663873497	0.6959216134675456	0.28782093744786447	-0.38496832570167144	-0.17820734714286987	0.48626755730337273	0.0343864355579823	0.5516529334199309	-0.18836448397604685	-0.0949160160842496	-0.11829600774690902	0.050117297677505536	-0.08682366223040522	0.6008736814360963	-0.3885959578961728	0.2919013133928715	0.13480790131049436	0.06728986850862359	-0.24711465662380652	0.2731147605175901	-0.22797841058748136	1.9751081480899423E-4	-0.01114749254819577	0.018419131279253497	-0.07554362096437742	0.15540791831818096	0.2331854039033343	-0.10394697801460304	-0.25296298336651485	0.01009397628461521	0.033420240084949995	-0.36701099494642686	0.2174158384598122	0.2668713093922159	-0.10010530805545709	-0.1142330756651199	0.026221049094817633	-0.015507978289388916	0.015179860558028054	0.014996966855828344	-0.02312808538595269	0.014818291688367709	-0.06233914346904896	-0.05282853942745598	-0.04018125192929621	-0.012031309410986365	-0.004317784397338745	0.04090129084079586	-0.03540082394338886	0.10462654028654346	-0.09781776466735734	-0.02316666352805794	-0.14909798351834586	0.023571426378172396	-0.10334394980316869	0.2059267662023133	-0.09457091733733865	0.15034996247869967	-0.06843017957269616	0.0331062962487682	0.16834069183036482	-0.238228804642584	0.1431746309901533	-0.041722164761396494	-0.10565064379975035	0.2361647041388304	0.05057381572272412	0.10429170742944806	-0.4782735368129594	-0.4765104328905236	0.2239835298383116	0.08677050254628636	0.182851816378516	-0.229678258242285	-0.2593616157883759	0.30126499801527734	-0.006387242674602529	0.372183385298791	-0.4669930426419812	0.6431153926851303	-0.43961335567164167	-0.306875329575377	-0.31489849082940774	0.2374795329682592	-0.15470514369767144	0.026284096195698825	0.10023437031023111	0.05901174108703705	-0.0019915026513432498	0.24393462906717028	0.3147490421159074	-0.4251751672952837	0.46336975991737805	-0.07645850903832097	0.45057266439947463	-0.22259003144064907	-0.4889432214852848	0.24778509851639827	-0.09234439000263145	-0.21566434506767207	0.007766474377272729	0.43539348116224874	0.15421153766347964	0.3380905735352907	-0.10709689415574472	0.21398910608701083	-0.29732884040664154	-0.40870755038701634	-0.28843796115940024	0.08808193411736762	0.23034418765446948	-0.38010178100472736	0.5345260309045433	0.37467982195353866	-0.015331283329291503	0.3455805163717841	-0.01913029704371042	-0.17356615077379942	0.277108062610592	0.3697575314607964	0.8038852737486492	0.015212172026016756	0.029447302693781725	-0.009208770444759429	0.02587538118198892	-0.05441277506263096	0.2052187247559742	0.3285958401751484	-0.1856708492089978	-0.24568380240448257	0.06661312674102368	0.06810057389053537	-0.30610197658205646	0.16248623905555645	0.22530306860152313	-0.07625290667516203	-0.060568009357625185	0.03936305871878746	-0.00810465927675445	-0.003391688784161066	0.029620286783488322	0.044508874769055316	0.004782395174326835	0.014785244697033293	-0.0414024870072362	-0.0783210875726284	-0.06620515594820828	-0.06155768692081717	-0.04331566156831324	-0.06836417448015393	0.011105509405555176	0.019256853900673106	-0.0036370028609434266	-0.039288559650769696	-0.07686599866270416	-0.026200096159521045	0.23100560091730737	-0.1585879923059761	-0.22742669343551675	-0.03751069695434997	0.5409864773501303	-0.030785728668602838	-0.6282165395890936	0.24461405132005548	-0.09355525584892502	0.17234737917726795	-0.12531413647435305	-0.2366119103576438	0.19582702060516083	0.10052922763730802	0.22747959998727296	-0.06909085817933618	0.10616197280259132	0.2931849730055348	-0.35027993495580984	-0.14957451424531812	0.2500272954723324	-0.4015649637875918	-0.5672401721765589	-0.1967672701719368	-0.3494123709230313	-0.1464254139676167	-0.33629345300722585	0.07149524635688402	0.5716159374376617	0.6123864402075463	0.40732167883259407	0.21121340047439874	-0.5501793840131535	0.2240286503605662	-0.4098285954415389	0.3449702333003687	0.36877755016716923	0.06224579057694457	-0.26991980529103665	0.5354281539057341	-0.13728778532898273	-0.0824673026059313	0.6213067607465841	-0.32303090616906505	0.3646692225951731	0.30256935023180737	-0.5825894855340058	0.3151430781621593	0.15722162331415393	-0.5444932615808556	-0.11325606374446359	-0.2817207500173476	0.09456666188701805	-0.5261506914820087	0.050711350728280105	0.62665911705763	-0.07575465830002392	0.14206823497401314	0.556919543501329	0.16952086236648234	-0.051564606840239544	-0.3572908408298899	0.29164523207180393	0.2852461412572106	0.5097075930204708	0.01198289219856904	0.01141986019815245	0.018191602653722695	-0.02791465757665311	-0.012035219718920758	-0.04763282354852003	0.24258962821560204	0.3929953818709737	-0.20134372966728087	-0.23986771440437255	0.04132627007874543	0.09658040804054827	-0.2531724609290349	0.1272537053537958	0.17879684446073088	-0.03438940553684554	-0.07043532286941957	0.03908666791105873	0.04806164980131672	0.02262479668701538	-0.055011215655387545	0.047656581772029465	0.05438945547104118	-0.02383947830701388	-0.006976745686837007	0.0491347989974795	-0.05932187660373773	-0.035784365531964665	-0.22954376922789427	0.006477822669637552	-0.09952888807898969	-0.03229518509599364	0.028617982696688086	-0.0885050516894827	0.15738208861319952	0.1750213741798957	0.22455394455455688	-0.27401377882382644	0.16677103962320283	0.1676189103042495	0.15104056144748615	0.09328364539945724	-0.3918803063330077	-0.030615754895581684	-0.16567737175576325	0.025898444537724375	0.29198593237812753	-0.39739035193360345	0.032235817260795815	-0.28889848419308056	0.3094431402119354	0.4542823925141157	0.3083912732525449	-0.31451997500887696	-0.3328118598336808	-0.43773933894481165	0.2134340676118786	-0.29696442768861664	-0.20350080306791343	0.4405531421070836	-0.11993495495496004	0.11297183092886366	-0.05991947243868296	0.7517611846756368	-0.45565722162140204	-0.198227419255131	0.20223286051740458	-0.1383694956498568	-0.27601474857882746	0.4008354020983835	0.12396214709725133	-0.12197041887100692	6.690939307975081E-4	0.3350690425235559	0.5524639590658648	-0.5333618582659945	0.2873124030564397	-0.4801314059569486	-0.3583646275534667	0.5418181913069331	0.6928231278403377	-0.1617858562054336	0.21080543301354054	0.38519674809990134	0.22680201168974878	-0.3460064404416186	-0.18776176533243466	-0.11081712820050513	-0.004143386126327622	-0.38065088327810276	0.16873551057579456	0.6551133592724221	0.6434199250068161	-0.33642832178924154	0.2559619911765439	0.38227132413714493	-0.7064799888310713	-0.09946658212651742	0.10615723584234225	-0.32199379896778374	0.023283129819145	0.061563802248343735	0.0255989210294186	0.04987596993278841	-0.15187775287612135	-0.06932406624090028	-0.06813244842183858	0.26612779723301794	0.4450252313618332	-0.19972661269323178	-0.19706484731292598	0.0429991849664593	0.11433619053545484	-0.19172840847670064	0.11707788515597774	0.11215782636882055	-0.02617519097143422	-0.035627715416898555	-0.007016585214052033	0.004483053492523637	-0.06657577179553449	0.08714743118162593	0.014165208848075142	0.03500201198687008	0.058573784731641564	-0.038443635631534696	0.012281946433694008	-0.0534586859104214	0.019871115441569404	-0.1648127350358817	-0.15614113482917719	-0.0011457210886880605	-0.06761090109756786	0.1750446742823105	0.29709904430138134	-0.04362121281733474	-0.03401268338165579	-0.44120332058184414	0.04866317231119987	-0.02687706490428213	0.07207283646119186	-0.3019551120056092	-0.2056621852941295	0.3733010608074929	0.42507010242122245	0.024434211453030177	0.06149996709140517	-0.21977181995436348	-0.29496733854919926	-0.31006374485307836	-0.13900093877822256	0.34056238548698475	-0.15142197799076296	-0.3291598340056858	-0.26423553428714114	0.10197582466432577	0.15398373125797107	0.3820865101088357	0.18198566495101376	0.1532076832102382	0.22150819540296848	-0.37533166172709426	0.13726431358855204	0.23422952063892563	0.14420574366920294	-0.2253308070837146	0.09616902999811176	-0.1867343906123293	-0.463140236481328	0.11057795027270434	0.1097410004904569	-0.1936949718116032	0.3996068575166618	-0.17208142455789768	0.4858022695827063	0.00937632123490826	-0.1315225667482483	0.3920605770413434	-0.4616999070205694	-0.42046929893082435	0.4165289685554436	0.015800054149102155	0.5226533663709325	-0.22517825705128064	-0.528749307832552	0.31664243217263915	-0.11377165050320852	-0.22554956826988956	0.3787864222847573	-0.00843218294117313	-0.1180189960579149	0.3885626853843477	0.4787590162355894	0.4861580361409006	-0.025693436725384995	-0.2461947595456436	0.2528023347281322	0.2039026335449661	0.10270581147356803	-0.24764684879344553	0.010105085237785385	0.027825541234161484	0.012048541894750164	0.09793063560806195	3.0742698133311147E-4	-0.2098827468890725	-0.05990539924759344	-0.09213413034198335	0.2867283077262448	0.40804972227244474	-0.18082683883332687	-0.1539167917412061	0.02506017412394063	0.11053773563004707	-0.1107546760883869	0.06971050991040845	0.10731532560260702	-0.05802930079438568	-0.030813462934172343	-0.020595898080180024	0.03776363609926317	0.024013151921880735	-0.08144840478726256	0.027481409949930275	0.030506958952979772	0.04886781633644232	-0.04938017968535082	0.11027724266054753	0.010769348722827244	-0.07810051537988545	0.14119179132199192	-0.047720825186718524	-0.14215299353468824	0.08337279141229946	-0.06651198288565878	0.08457838644474111	0.2717843491073702	-0.35484366855932975	-0.1361857743677989	0.22214440178000988	-0.49621460691336094	0.362606450895049	0.1264681986285864	-0.35539181822697147	0.18080232890988007	-0.38334728567635695	-0.37120721750900837	0.08058907836740029	0.3255633641030562	0.016083467822758643	0.46433789951937904	-0.25145889286898276	-0.32110372586382885	-0.2591883856403448	-0.26810510636279816	-0.10579093408563021	0.21121195500878004	-0.401459932707573	0.1646951197501521	0.19077053292062063	-0.26502410214735106	-0.16021502894040526	0.23038966770773078	-0.06782586153643654	0.23995548114681087	-0.07554409143473603	-0.02691543149531012	0.4006667713782519	3.8051302180293705E-5	-0.04035658849092546	0.182895924251079	-0.11080360385693667	0.10794060169594787	0.34738963488441144	-0.02751901450630127	-0.09019376248023207	0.23756915399817563	0.4413491130761128	0.3557824173880659	-0.2026027254141554	0.4236897152218294	-0.16448187058055555	0.037430610137948565	0.034773875877595624	-0.13663288562800047	-0.08756383802853916	-0.21610345545190865	0.028973400931434596	-0.2328707030164653	0.4959745777198993	-0.5806139050942292	-0.1675656886346939	0.32186323634247416	0.15908004268295867	0.13423351511675058	-0.2901351737111514	-0.6049865796180298	0.5187850757090613	0.4526746725147087	0.668119638844156	0.012020863621984438	0.025425194382182745	0.012092980199669721	-0.051741708050011784	0.1245865234892982	0.06909079789548493	-0.20671963654868192	-0.044120443836160456	-0.14026959076771706	0.325391683938315	0.3585458986359793	-0.1377185942936397	-0.1265272625665945	0.06838258350826835	0.08843393920235211	-0.04297961827630477	0.10474472170638469	0.0612089898237756	-0.026326939874236545	-0.043011475694543076	0.00530922467902802	-0.04103209294029753	0.012091742740180747	0.007818546126964398	-0.01941878090272693	-0.039484267810959574	0.13080069857304505	-0.011761360763059536	-0.15513113824341768	0.2015268677989838	-0.13914948467066315	0.15432847191846896	-0.052434987414830166	-0.016408665291642616	-0.03324981652750407	-0.15217327615728815	0.20314589165812633	-0.1133092212333377	0.21095229848955002	0.024974332104676086	-0.2620892195372317	0.10965630208931686	0.022842729422107102	-0.27301128710276196	0.11994524662466617	0.09779019023752251	0.11597813236712971	-0.12222647849535893	-0.10106372542118308	0.1987414550701799	0.01676107178734356	-0.5188565309821709	0.20634786988478826	0.06106279062866799	0.3356910195835938	0.16642437379521016	0.11764037813943744	0.387527598594029	0.21752943367174996	-0.5031570399700382	0.028482826265644117	-0.042770789807271545	-0.43153426759566416	0.5802278375151272	0.04426262747470811	-0.0521559617284777	0.05711248004651051	0.24286372128758563	-0.10962449194137944	-0.2972648826847318	0.056441106008196455	-0.0281348807938761	-0.01835925269297097	0.05772549230284368	-0.3803758979850629	-0.03431472049144407	-0.1755191963804466	-0.2336805969331018	-0.4581627396625587	0.38832738554508023	-0.2738351363540086	0.6288551974885815	0.15534302294914684	-0.6927938195451426	-0.3186895703196501	0.4949843293358484	0.30225968267814013	0.2594467692673442	0.36335208328386137	-0.10846493389848208	-0.26060069938298536	0.21568650515302729	-0.08905525933967666	0.7124163523225868	-0.03275191829017924	0.5569930283468332	-0.3278500572436041	0.5019057063034594	-0.3173999612695617	-0.49596272519614115	0.0068492567563066846	0.024660685832936815	0.07159153493508373	0.03046774343008625	-0.08759681551595332	0.0875063872820714	0.10577616945563034	-0.15888190403455094	-0.008013789558997654	-0.16431663845589897	0.33309633364624464	0.2874364125809675	-0.0989815364166932	-0.13806812885947736	0.029341735231848916	0.06911403638457961	-0.05500746606084715	0.12245724023868407	0.08547518565369822	0.01167795652540348	-0.0501412914060464	-0.02798339877361994	0.007234535174530502	0.036214344719890906	-0.05469562524719012	0.09110451562052879	-0.018593284732350224	0.09425816859537019	0.05288334439916457	-0.05190533918644834	-0.06031291373366752	0.017952008814058024	0.08662613832389285	-0.1312063226733618	-0.22340071372585782	0.2565593510275648	-0.17186586069404325	-0.01464921026157985	-0.003915307608328466	-0.3094039717885627	0.3380050742673812	0.5271398225465362	-0.31507705375247136	0.4102459132114441	0.050601893464361385	-0.19246917753841775	-0.5735749480236408	0.28857508011573835	0.007581555427260516	-0.3910563061843962	-0.4155214986077194	0.23197156944126404	-0.13296924863272092	0.03416210558554816	-0.2743267236815624	0.3048350763153027	-0.0160081569372185	-0.2873742595829551	0.4380822539315992	0.20188042457612176	-0.08244425064164258	-0.23815373925011843	0.23038463846489962	0.3371224699198285	-0.13890959883722082	0.14565351251000058	0.21423329740335637	-0.06537664214196688	-0.42930504414806037	-0.456855733341523	0.06108257159332115	0.4243838004010376	0.23353388985744847	0.16130909203722182	-0.14540055151012518	0.0849450720208646	-0.24271718205981604	-0.0737697887433482	-0.45539100274526556	-0.025109798449895346	0.618652617266384	0.24992989224342813	-0.07008109068311215	0.14278302401588744	0.08723382474273558	-0.23256101842640697	-0.35757695954377355	0.13830622891050268	0.5216442898622212	-0.30370882577529584	-0.5536462530126011	0.1647711493085524	0.5807318894171428	0.10474563943840585	0.29678971922080327	-0.03325179046353707	-0.34462264781164376	-0.09983483954251474	0.14977486320657615	0.5219234405038568	0.03188473134457977	0.07602031649182735	0.07028568181432202	0.012278811641604794	0.02348315317768872	-0.04538262218677121	0.024556835097845744	0.17480661927080945	-0.08034722467333733	0.05018465674740959	-0.11604014974382128	0.2860040064757264	0.23351364901087315	-0.10652756970940379	-0.10987500643134757	0.010774491810577314	0.038692333099564005	-0.010199856005619408	0.05547045467093957	0.11314002544631578	0.02176199332305947	0.00450078333557279	0.03234329411814059	0.007625084314743838	0.031896352761461404	-0.04853582443456616	-0.021274389727217513	-0.09623929440884028	0.03826965560974372	0.038863621794069686	-0.0348572083244561	-0.05438923520234871	0.0032806175104411546	0.09395522454289021	-0.057291635957358165	-0.19409263062786083	0.010344969953401168	0.1776959711651515	0.3217465344728216	0.0036610740517014264	-0.1647199844974976	-0.039854202336286	-0.035309173388855426	-0.5185745169777679	0.43360927378914504	0.39904880591108144	-0.26714590608440003	-0.1639169366047521	0.20285400611020196	-0.04509269959127373	-0.24973351798282778	0.0588341237319031	-0.0141261686290123	0.4176109770122663	0.26842678059135006	0.2321277763662444	-0.23626144304009453	-0.07240541709230755	-0.0649253711858299	0.36889542890237015	0.09630428605727409	-0.08406235991408453	0.2083334826384954	-0.14317562536858267	-0.17021460418538437	-0.41502587092554977	0.18248186912617423	-0.22075630896359544	-0.18396353288297784	-0.055312290215385515	-0.26786456398052827	0.20960550971249986	-0.0912486293514984	-0.2604056711304986	-0.23537828572761355	0.44655664602062095	0.4951752525374009	0.25395810371696376	-0.5021670232219657	0.8293400598514186	0.04911562785933279	0.32685808552425144	-0.14534046204616952	-0.12855082886592625	-0.11150025132994643	-0.21998772069592082	-0.45503211619884537	-0.14174303467139673	-0.10785369651331611	-0.47095146109216973	-0.20829027090701555	0.3872288303774216	-0.16967037650260844	-0.15891747996301323	0.1792649334462311	-0.21816477332774076	0.4974368989340839	0.2265674159546092	0.021086909425610617	0.5121252220540043	0.04242383893412684	0.08750115769134058	0.14038898229421806	0.13891186643521172	-0.038132258962729815	-0.012828256507566383	0.014005051108866174	-0.02081251158898498	0.2923004882055282	-0.04718728903756322	0.035006189085177275	-0.07204442055381954	0.24632390640823462	0.20685028390941884	-0.05430125794714422	-0.10464886698697684	-1.3116723891931325E-4	-0.03006208262326232	-0.018142532222454086	0.036804746021687144	0.11772873370197375	0.04822728495687583	0.022475173989212973	-0.0042476117208014854	-0.04718191428830272	0.0412032458284344	0.07953109072757751	-0.06613466074372479	-0.04377278140561413	0.04093150432707463	-0.03799622521844523	0.06872939762343186	0.13795610496487473	0.04622916634131753	-0.2572583914998333	-0.1054587953209925	-0.10087415252513252	0.40437654278807295	-0.2767874203517304	0.04939959522835914	0.3218344522692716	-0.14301286017666123	-0.30581599500711565	0.28114841885448266	-0.19508007503309552	0.3771536075022775	-0.0423694439951555	0.10006422028534068	-0.3182213906702594	0.14875203675752666	-0.06810718006588073	0.18948030980945674	0.052331754661004516	-0.3010319702235598	-0.7038298211545349	-0.03142771511526224	-0.16799230400349296	0.40168478690355025	-0.055216218790968725	0.6272835438848132	0.11389881683700298	0.1533086430959029	0.1265001300343782	-0.16714080839799314	-0.17383680756849762	-0.46158248848996697	-0.17328943205905017	0.4757473757484392	-0.17433984955762477	0.5158939625755412	0.04906593068802504	-0.19250639133042355	-0.08230901728030826	-0.4506032351283364	0.19075091161101831	-0.1922632961793328	0.48575472645544765	-0.2773861820963113	-0.016977267486535226	-0.3293709522596963	0.3380462023776382	-0.3348978183246172	-0.2899367537690631	-0.02099329455082852	0.15667799758338308	-0.4553076682240284	-0.2917252374893592	-0.1385890256400881	0.1532833901374663	0.06339311173111889	-0.2457352653992742	0.16755696302101988	0.5604432332370555	0.6452223736449609	0.2905915240829118	-0.4736718754442001	0.5133982629918421	-0.04904525032620713	-0.34144042391148877	0.2926662971567351	0.012301155195854249	0.03239906249311776	0.14720317714350348	0.16607462343584245	0.06504670839789373	-0.1586912229315219	-6.537052635995736E-4	0.043622049685877365	-0.08548761359558142	0.3209407263747436	-0.02621630564664214	0.09442998962410036	-0.0765218844907621	0.25226131761836756	0.13711858600293064	-0.03282087093832463	-0.044543581523948834	-0.05187722484572167	0.019608098234546293	-0.05543584373690492	-0.005555760286128312	0.07942948630479013	-0.001506731383272656	0.10090281108006398	-0.02977045497748373	0.05976820851277093	0.07324890626946225	-0.03644919917826159	-0.1135896571260203	0.08404352166162772	0.05430638642262121	-0.10543589615755672	0.23316024755520315	-0.09028801724972266	-0.008380610832081798	-0.006805635981470042	-0.02261085071629563	-0.14401799500599288	0.07626436335826091	0.14813416304996888	-0.05322627075470665	0.372695980238469	-0.34631036791848335	-0.2638194620313858	0.2099629165958879	-0.19015345735930933	-0.25293518733983383	0.2294379037838257	0.3160381861280795	-0.04528259295797472	-0.023225207471432356	-0.02968600444727004	0.06149676846430867	0.0073419285359215295	-0.005262169068576394	-0.6878989341059559	-0.012821668978413204	-0.1294038912700661	0.29791566385843626	0.42550937486330775	0.35997267116795356	-0.1762817097125356	-0.23308673716745437	-0.36996961126415956	0.051163682935456964	-0.38231654722650543	-0.1092762240702264	0.4919026162909007	-0.45237164826920306	0.004454988933614853	-0.12389133925915181	0.4343129734465526	0.2452887745898422	0.36108004635193236	0.41660861787974324	0.42449769046492347	-0.11398503439929025	0.3091563267217043	-0.15899453044558426	0.12404319734740947	0.3276528182138397	0.200646545441699	-0.5075057060652345	-0.04282664108208776	0.269084910270486	0.19961771369534229	-0.37760711690085863	-0.07165505310024353	0.31412815890531265	-0.4087625801005345	0.11321161646697805	-0.15270861740574013	-0.37000822837347247	0.2887617188774115	-0.35998128972029203	-0.3914724994374155	0.160449920568008	0.26005699565336476	-0.14673049280790823	-0.2990711920544804	0.0198221290504446	0.09282273634949624	0.14198167521714314	0.060752703926423485	0.12407392671702192	0.023516984997902488	-0.11646284778024195	0.057462423089420844	0.04552137239466275	-0.055366802321889626	0.29934448548778636	0.014441433059608409	0.11843230111404826	-0.0293220091907897	0.23340089851044954	0.10566456738146936	-6.422578861406967E-4	-0.05364376595945917	-0.011903545246755336	-0.031062575662989242	-0.060707620336840566	5.7868098715314815E-5	0.07956596211695412	-0.03264193030285609	0.12956931734094793	0.005247082170844782	0.0355357667411622	0.06979894731058872	0.030763178941559836	-0.16957986467639713	0.13419078472103535	-0.0016739131979403858	-0.07018441071026872	0.030504830811390077	-0.0357114344446755	-0.10585754054579206	-0.23123240736123646	-0.024980569813322254	0.2732442821132888	-0.16974148846486117	0.13108632680472673	0.06657543383870144	-0.4221883350244974	0.6290433596256257	0.40042373177128887	0.2356656672373304	-0.023058994454864326	0.32897943111224814	-0.28645782651252666	0.04513844953793643	0.3395636878152512	-0.11111086115387825	-0.1216801241841237	-0.2142471428011708	-0.34681783981734926	0.10563460802546136	-0.17618201636520286	-0.1291647560414478	-0.42726307208930225	0.29470388316958324	-0.3000524823415038	0.35540508112544295	0.17483197203714493	-0.295810043183049	0.37978706328138717	0.22356215604744795	0.4445702735772078	-0.30263074759118985	-0.5403565003883041	0.1431491150646873	0.1747543438749949	-0.7351804352482153	0.36555431537546934	-0.15727317953722858	0.47752942629643425	-0.1257166234304846	-0.1738326691727863	0.009596667811117648	0.035154081875109676	-0.04907310825314851	-0.17251340462241693	0.49471587456839755	-0.2973732193863049	-0.2511285732943566	0.00124870829781527	-0.5318227047179128	0.39608028276433704	0.42323905324132155	0.5857363526333569	0.06854140785966217	-0.5544994231396961	-0.5660653742617143	0.3345907588273787	0.15598852239043687	-0.09480324295197072	0.23833163188127643	-0.2751826606501223	-0.15381286406204464	0.1215483907030862	-0.32649463326657585	0.01642260115761789	0.03451967398967204	0.1364966637403915	0.12457818712973903	0.04419499252918389	0.10376178859615927	0.033915417016997	-0.032657705192229707	0.0653676526229821	0.06198781126253263	-0.09945695021928094	0.3303407623254152	0.061746492438322545	0.08277350100826616	0.005272428023064437	0.21264409428776895	0.021161194860023557	-0.004309564759057622	0.011139518520048021	-0.07171867033376941	-0.019384167879641773	-0.01857166546856156	-0.0019540668449684637	0.052143129533733484	0.076379837282439	0.03832370868679408	-0.008943477131251544	-0.04623698236842877	0.15983759818066395	0.08647028683755063	-0.007103598555301614	-0.2702670267437892	0.026000166826511788	0.08876343547954955	0.16609491997754797	-0.07032550005834858	0.17051393962042416	-0.006531698555423435	0.16187928981300875	0.11500944954536982	0.002364998648970173	-0.25695132867299264	-0.13379831710183412	-0.14493019799073958	-0.11390981103562742	-0.21247539221185074	-0.18716592849218025	0.11765869779074002	0.031491321138512954	-0.22883552840484678	0.13435898782261388	0.2469193353214625	-0.08246008569084269	-0.22933404381412975	0.22363315531337238	0.06474715390577378	-0.49934923852916147	0.217463235001531	0.25778229385060253	0.14861335691152228	0.07286666016401386	-0.19086014213222877	0.5116732541757515	-0.13701120372004455	0.3220519612408486	0.06683617917556982	-0.09369481877341919	0.28891365528468893	0.2896647276425969	0.19057807353293427	0.30955679470164466	-0.3284176479871763	0.5268632379358773	0.08017913686793608	-0.5190269400450657	-0.10545178563451803	-0.40891097593509407	0.15733233441005062	-0.03249805640305104	-0.12569509469457713	-0.09671633445929836	0.130829108803928	0.31292636579935135	-0.21440811096284382	0.12390761557486878	-0.6047160116739181	-0.18649483652869916	-0.004306694631393289	-0.2610791030905566	0.19063155396410364	0.4865419212667677	0.1540682199189894	-0.5245536989598871	0.2755137444799049	-0.3344029534934601	-0.1388476385272472	-0.3933049546620017	-0.027943455355944086	-0.13795903171872903	0.06875574053152603	0.03319988314342509	0.03602790066436146	0.14840360438093422	0.08626894069126032	0.1126148964508548	0.08432181454359203	0.08854634807868374	0.12742183652284225	0.013781134115299042	0.0839119150742543	0.05330387344375415	-0.07361283929188027	0.28123423664284863	0.07047714116552235	0.10997158701446141	0.037644178505443666	0.1988969975129937	0.029692882968355257	-0.06753113312691808	0.018507914229624365	0.027875774813897216	0.02964713302752604	-0.008779023532753788	0.08051199711477959	-0.012433600939566067	-0.042026226344306444	-0.006527107997009661	0.07734846693918901	0.12580359108059233	0.14062842694283748	0.009558489709682542	-0.009719534985830607	-0.21820659235135778	0.06385606671118454	-0.07710789512224389	0.004640378472526012	-0.26791727831247963	-0.13606042893352663	-0.13102243220679657	0.19608885850534546	0.20669843803099358	0.11811799105534407	0.13090026172703798	-0.01169292800915132	0.006064718462350071	-0.2768499868311813	-0.12948365612261387	-0.14357223718651294	-0.3295757703213966	-0.3890942567961421	0.279605488241961	-0.015078934307896037	0.4630727205926973	0.43259644215923465	-0.34384242137457677	0.32236101584631804	-0.08776611242928085	0.15364073876615797	-0.07660015743684102	-0.1019043217732357	0.036863352576424896	0.047909586548623755	0.5704199015329845	0.3492078735841453	-0.4824311361459212	-0.4811206168064837	-0.8362980778685564	0.47543044007534085	0.30493354066390493	-0.47206579218889144	0.01794446655169232	0.09105290463500151	0.11154903438960212	-0.09166262634140243	-0.5817957228237092	0.3899377446347023	-0.017008190093556624	-0.05688185603435791	0.008493184022515293	-0.04954106909368185	-0.05905875219993413	0.4683246491762415	0.19714209191206258	0.17466847635507662	-0.06294750671872669	-0.18986389188561414	-0.32838230497055987	0.046173472094564634	0.015273921003782125	0.1757997947654176	0.3099249446434452	-0.13883255320524993	-0.3454953882607674	-0.14969061941453474	0.17461980457129686	-0.42139219037799536	0.44369362302365567	-0.08829895528875278	-0.8895077343031549	0.4889626100216091	0.013749825572115727	0.0675123813930561	0.15780686022193804	0.16050562341103178	0.08154522422991588	0.1331743936419882	0.10437228897603572	0.07685569745676069	0.1895824180809706	0.010553804094490055	0.10050058007291301	0.08813999474651511	-0.0783272900176565	0.2832242267332533	0.035183828082167176	0.08650760950041085	0.023206670932769374	0.17443574797738184	0.02220022356210166	-0.014099143263945246	4.162286026903824E-4	0.03193758909308961	0.003244679122975922	0.08067460533821325	-0.015064344925190378	-0.026893984152976436	0.048790186916033436	-0.03159406575487048	0.018029557684789775	0.03838147418638993	-0.07122103888239326	0.13671784975926152	-0.07231802160033068	-0.05464218064732577	0.09351278835597791	-0.14700075039400395	0.13259380869305562	-0.17621235338631705	0.03831164847899677	-0.29766550945058134	-0.36403450309550495	0.36094593137643805	0.11360850009252839	-0.15916917235573205	-0.4308242206621201	-0.002137725884461931	0.07739656324694852	-0.0908846233100952	0.17114179262906948	0.3441757973951545	0.31170856566783334	0.2745813210132041	0.27723751880107805	-0.39670700706186357	-0.21722670123925056	-0.07805383465876226	-0.024431836336268244	0.9127377309543706	0.14462979774405468	-0.399791840292048	0.14058408434426445	0.34724432520726983	0.13126281271947876	0.49032796592878547	0.0847556719739145	-0.8461759376711301	0.5348865954782497	0.0358686722640363	0.3701729636612953	0.45101306040510125	-0.1310855097692595	-0.411481826261986	-0.18622031830770736	0.03896953232220122	-0.018211586974690268	-0.1497120538332123	0.43370817739911144	-0.059149883782235776	-0.2842029564655099	-0.5127453289460127	0.11251372345623815	0.15457484618491701	-0.4888891225761336	-0.23531700215966478	-0.21659044730704835	0.15059705569261478	0.36140689439354623	-0.05924163674936975	-0.4143496926172875	0.17391019917557027	-0.16958192701241098	0.05090039638132244	-0.2116800284067069	-0.6805333884381572	0.043282383799750156	-0.12923943557252873	0.08674896304705414	-0.7069393553373541	-0.18819990965945751	0.16774145384504877	-0.007409591065913148	0.03504114192815758	0.12775566098965654	0.10985314953066128	0.1563115374872529	0.06678994686381567	0.07147944869932404	0.15097155028001905	0.10547440220425616	0.193703538320223	0.011540971487362963	0.061930263454524355	0.06739777954860322	-0.008902285925492073	0.25282455559482414	0.05236039208631543	0.056167008379194576	0.07895680377121395	0.14780275744834176	0.026436126330528924	-0.09917320793368756	0.0325207182406042	-0.015379660908379144	0.08604022821388882	0.03538029336961769	0.02634130116601543	0.09796329873000285	-0.03274286902645757	0.07408535435831143	-0.09131485989199219	-0.06521926045311292	0.03408024419079666	0.208438404690712	0.08843042782459969	-0.12228380450270943	-0.26288307643986153	0.06691499215933881	0.32328952310159337	-0.04807968801009982	-0.24934916647618802	-0.158371853034774	-0.23408806277119543	0.1985162316322999	-0.2909181471538205	0.12845720466068977	0.24262820555896952	0.30772573396294267	0.2970229955391326	0.13660662482113978	-0.15485753482096065	-0.4726637349474755	0.19239217066934372	-0.3603749599334831	0.7073683306537971	-0.3765724180653155	0.1308361641815945	0.05808954721748612	-0.019439962297189813	-0.16579879702689065	-0.07298971473430224	0.10749597586573924	0.4147476579131848	0.2229844531789641	-0.45079668527825145	-0.42236998329935244	0.19044244686037878	-0.3448257125095304	-0.4043925762438705	0.22367159250106564	-0.2211024603542529	0.03882311091156794	-0.37260635960700733	0.028772796064157606	0.38931403043432766	-0.4558174996126485	-0.4707015871983123	0.11404990254299428	-0.18739791294369562	0.4992749422346397	0.03598427250448043	-0.21063637466263002	0.6350249809225031	-0.056841093119811066	0.19956409814170373	0.0482049011786629	-0.2823563932782733	0.2243968501380112	0.20095280861976522	0.24154036452144143	-0.08758164584792502	-0.19660155202561336	-0.06454457002335437	-0.42091883388288587	0.027195862904376814	-0.23390087371467935	-0.19559623319514008	0.1025861944267965	-0.17256225405848108	-0.10452245029769748	0.001435483175563204	0.010438293421664009	0.025212297078750875	0.08564325781220654	0.08968980940140543	0.1124710585859641	0.1623850131784832	0.04181330194236952	0.08309300799905293	0.13622942715694208	0.1550377137999418	0.13242301447053653	-0.0028408958960064084	0.07993264344230047	0.07719742454173734	0.059353581276217114	0.2336046793664851	0.043666596376042636	0.020698061914355408	0.10327729337967696	0.1460593373708411	-0.01798728863022651	-0.06362947830936676	0.03802188356274742	-0.08009429449945478	0.05712330226216298	0.06379278500846917	-0.055697646374831065	0.1469994092054857	-0.1007357391899555	0.19639082087182663	0.13980312044064683	0.02667619068812071	0.017796666862205032	-0.22752181756261292	-0.07072195980716653	0.08370498448494203	-0.2188705255085493	0.17197990956442502	-0.05945421984066052	-0.4203732641677767	0.24323787342893008	0.07760338332868735	0.02067612660116113	0.3838396013931333	-0.24774052993069132	0.06401785694758266	-0.29125354846732165	-0.413617311361177	0.34703580680287754	0.21871771509134935	-0.13336927016898759	0.10729625699352056	-0.4350865799849277	0.44844651144691033	-0.5875953531410001	0.06902333441849481	-0.1777843671295386	-0.1942213349534355	-0.35993675427465116	-0.32527462342324	-0.2960915790677252	0.20662309434476642	-0.07243315268260819	-0.11819183176702297	0.6859503272388231	0.741229235077773	-0.07700856991453887	0.10916051981164294	-0.0764709240203249	-0.08928891951323538	-0.027002125801201097	0.23026144086557612	-0.21670830241912442	0.12804265145476917	-0.32094543347198895	0.3988677365040245	0.16990632078876072	-0.4967581547537214	-0.43569733205273875	-0.06083008319501675	0.18728235737574153	0.5187859313510684	-0.20143346346090998	-0.04018870613245	-0.03457628192516881	0.14597669659618687	0.14133712176883909	0.32638015837066625	-0.4549027748694809	0.5149949001929622	0.19354335593994007	-0.30842069154477386	-0.44269039110605607	-0.15749076772071283	0.07559803124801211	-0.6202573117332488	-0.30432432667945747	0.5186872281453112	-0.37722632756160784	0.20976661892865592	0.019430322926801625	-0.015598748413163653	0.055817216082357325	0.0627392015417777	0.13463860825378973	0.1210184689428305	0.14536310502757746	0.06373506686517298	0.049578795388394915	0.19960442563266143	0.10879959988428434	0.12463257987280911	0.02721049431320991	0.06135364362434181	0.08088828945863484	0.04052162663780359	0.24780034961801609	0.020707851035179067	0.05776609034393537	0.10611833067908978	0.13868934764989824	-0.03393392950022967	-0.05306876673435611	-0.01179210529207962	-0.04145979980833405	0.029275223836574576	0.05952681070827426	-0.04001778909673228	0.0438522165795476	0.1429529856274317	-0.08334228577095794	-0.02383768271681647	-0.0516757323441211	-0.09988581582689646	-0.010950976913931862	0.36219068883562816	-0.16203653300644288	-0.046227170446750586	-0.30230667872874395	0.16311283967510992	0.10094910010225597	0.02198684810013219	-0.12012381686167768	0.12000654440332885	-0.11278852598762346	-0.17780017139926466	-0.46420064445558296	0.15521639842716428	0.42064920111845366	-0.39459402148084644	-0.051308984140010616	0.12126862235365217	0.014834867453176734	0.5263592323968478	-0.29714494083265486	0.5782556875673747	-0.09364116724884386	-0.4575377470447217	0.04891608361599167	0.21784234208809888	-0.11494805767220281	-0.4339603763283564	-0.07287565929377858	0.015861617983221506	0.009068339096791491	-0.11707579498006707	0.10064077417475083	0.3425112778738976	0.2035262553766602	-0.4710025115963924	0.1863152780446602	-0.30749071251832105	-0.26772032369350385	-0.3019084065712401	-0.34140501872224654	0.12738838834834393	-0.2876832020892721	0.45074157875861337	-0.2925673568353544	0.18228635895392892	0.3999823145954839	-0.32787494176930515	-0.8062517485405161	0.05465077663434462	0.20217013002861814	0.412151235149296	0.1385068896432447	-0.0935239369599585	-0.08028555567701759	-0.02821241571900367	-0.022312854006407194	0.5237474610312234	0.20641732167282878	-0.6367309280009881	0.397442013398964	0.6035895854723798	-0.4037199468939457	-0.09101956539833153	0.23915588387783965	-0.649855585705392	0.008044469314815098	0.013885155093124416	0.04570771240069695	0.026762395678358773	0.17807712988863095	0.21034044911022945	0.13317884596005772	0.13857855856856233	0.06044699950773714	0.09788017178572664	0.21853780882763743	0.09429341301971383	0.12592353005096138	0.004224423857147924	0.08607684968702364	0.104190792105151	0.06114419653675238	0.23403481948035104	-0.031128945596605777	0.07245173761955785	0.11962260901565037	0.13269632882848056	-0.013949904582395903	0.016260428179342784	-0.08403940235375178	-0.030861667405246145	0.023240482564016094	0.14014660977995672	0.07777312472179147	-0.1316335991468883	-0.028466953645452858	0.13484847669966635	-0.14693276484338547	-0.01995946467974356	-0.2326512790981096	0.14819480009488015	-0.04766763790452394	0.0550493008199643	0.2541186488648502	0.010790697813295821	-0.27248479648869683	0.3873037222403889	-0.2297509099435072	-0.2696198714193066	0.09312724594355828	-0.16838117457111515	-0.18129297130727234	-0.17805303545066634	0.8712264450391726	-0.2531473652499294	-0.15142522789856522	0.07112994708721779	0.25502262613401777	0.15321585544222102	0.39949906912051425	-0.3966396939503641	0.49432819340440265	-0.3358458565016932	-0.14811264235162372	0.11149798066612866	-0.37843075145870175	-0.06913128457475601	0.2877820597419252	0.17512093978127077	-0.5704315324570118	-0.03931319285962418	-0.40317169825566723	0.350284115602839	0.43466889446856705	0.06423926222199554	0.37348249999052646	0.41158895249520694	-0.3644886103264223	-0.06895997630980641	-0.368509202410708	-0.24457623696789602	-0.14343523946092063	0.015659763646203282	0.5041630377991341	0.21432238626546962	-0.6901967506662522	0.23146440306842875	0.15666152016323687	0.4081145623385025	0.03696599942803632	-0.20679463590063432	-0.13611391203642467	0.06610411908133798	-0.04946019346401229	0.04779009699156744	0.06382225527097754	-0.00199283686984705	-0.7134727506552542	-0.13229824125771197	-0.3675355884703019	-0.2197295203712623	-0.11488511014790168	-0.8663337476633827	-0.17737576943556357	0.3169526723720128	-0.006905586114862009	-0.018005495025446516	0.033955659916952916	0.018860165924773433	0.09599156948186292	0.21359077560651135	0.21337386484989013	0.10628453745422273	0.1265189680241841	0.06823340938741186	0.10745587708776731	0.1964898097905165	0.04207317510551204	0.06429338066232786	0.04392795793925769	0.06902118617026756	0.10105970679261156	0.10746654035448043	0.25419501472899164	-0.02274582421178363	0.014552156305695771	0.16097763804541468	0.14413181784368048	0.008107463040771175	-0.03809461102955952	-0.07325053917173034	0.034221900462210464	0.013857165444955438	-0.014837586148081647	-0.03520244750096902	0.10481957804191148	-0.08291071604241382	0.13640591099023452	-0.06811895212974382	-0.03457993312067941	0.020243507521183937	0.029609698313895344	0.03980331866179008	0.057780302636391036	0.0909179068515722	-0.07652624468582152	0.32240266594270156	-0.37322921835104167	-0.2654327820793092	-0.13595510775818476	-0.6483995999023595	0.5547154682419966	0.18146623818833962	-0.02332129922949679	0.1576896416784866	-0.248680586545957	0.3990391490270388	-0.6300327338373768	-0.20323069737342575	-0.42424331281969857	0.06495750650959929	0.6522154688853982	-0.4421683316587849	0.3214374094185177	-0.07334758144420431	0.30666863765533187	-0.6639392770282371	0.5196146700139269	-0.47576278679144945	-0.18559191585660892	0.12451440715738249	0.14272629233892792	0.08973589221845696	0.10987429312274698	0.4297220433624252	0.3223790551743249	0.2109522854823238	0.6587545496655419	0.2921548559131116	-0.5545161101582133	0.3511496709724421	-0.34777126835182726	-0.05844754788815266	0.20318942357131656	-0.4506677041223559	-0.17574630561867263	0.1738546099681674	0.2153086382223787	-0.14958881852755793	0.13604196479955005	0.3125943229739718	-0.4241368673506484	0.16180176907172175	-0.8346635869614846	-0.0017676089252458285	0.3381034937026645	-0.23299336975125473	-0.7606178686693933	-0.609278605315098	-0.21511113310884203	0.033397625362916884	0.2430758816360802	-0.4738061463040147	0.11649960471523649	0.07726777351056195	-0.01322600013469017	-0.013773704962758865	-0.012081841871388721	-0.0031773222126663175	0.08304111506821779	0.08219152512373974	0.17453741264274064	0.1857874381244094	0.07742170256873901	0.0911680575868854	0.08965180081862466	0.10578142594115357	0.17714893721248776	0.04148538492008019	0.07085039617380952	-0.00726163059577168	0.10041221261582657	0.12771919092371922	0.13459076293752836	0.21520452893019398	-0.06534638348769568	0.041011539232510996	0.15966598591367717	0.10012239171296534	-0.0083194896347668	-0.0679599207691017	0.07593720455887816	0.006598386320652972	-0.18981600140132193	0.20443012422939366	0.02105184406147954	0.0763528068063781	0.12644306999928262	-0.06682954085336736	-0.1662114213662644	0.05927454488818248	-0.4567234217351919	0.09384074521322888	-0.1445911953067743	-0.22565743282515444	0.30194282781438536	0.09593844785772669	-0.050163510787636194	0.30503799980142093	-0.11790121666389632	0.17447745012434565	-0.4844896618853214	-0.27573593958977644	0.3260894322145279	0.0036173810607974593	-0.609589685876008	0.2665297657387801	-0.3470403096305025	0.1877569747009096	0.44467776723465846	0.12600826602312853	0.4449753389799897	0.10639270514821639	0.1296705278203421	0.3595254721569709	-0.7341826101429062	-0.470442501315508	0.01897921931355901	-0.4607642076863337	0.4793280758868567	-0.27613282767675473	-0.23811180555551845	0.33199632637137383	-0.09854954294974344	0.16302787153628687	0.15089401030012073	0.007552036158321264	-0.6828886911456288	0.3621176760379324	0.10660575744411728	0.4181634653158525	-0.5588259228245167	0.23668830277416483	0.2625746572606431	0.08633158727491075	-0.027081902865360805	0.13557957185845226	-0.2922923334488577	-0.522749128955843	-0.24410015733653118	0.30822593244832475	0.3967942243962173	-0.2274128534807287	-0.43831837328667567	0.17014920595278482	0.11609520142612148	0.4059521838327142	-0.27016221445774974	-0.13620208388993524	0.14378964076049594	0.2729342071262391	-0.5839347777834271	-0.37378024206629096	-0.11886017112326437	0.004697364336755641	-0.014598162311080427	-0.012663417877281815	-0.018771554642537103	-0.042167571993884795	0.09017653590508827	0.11893786095990916	0.08277499963682777	0.17053987209752533	0.15392533421532356	0.06816899351605908	0.05359764205873754	0.12372443524319483	0.10683817879107264	0.1455310764699913	0.022138969943532788	0.039610465403955596	0.029971983686179954	0.12243073680921554	0.13558042768391707	0.047591516040240686	0.23070801366190838	-0.06123623412878841	0.06607507565640036	0.1191292867357712	0.0489986549118579	0.08183646252395023	-0.020835203885012338	0.05987997651404234	-0.20266085384601212	0.20735608493930843	-0.014700835745664621	0.08790652596185448	-0.010130415280142024	0.10533604532627762	-0.03900555619113286	-0.03617903339176797	-0.2950595432496145	0.057446233477156064	0.16854414143336258	-0.2398170684329806	-0.0913949084296243	-0.3129861180699853	0.041438364344978176	0.07016553297487464	0.014193182878082616	-0.5162216774835796	-0.2982748512093665	-0.14031363302216127	0.6258228545629617	0.27673410874069804	0.379924280352156	0.08616151071038478	-0.23280745067673442	0.1536659045184985	0.05177594311614821	0.5045777043127156	-0.5101443526160501	0.08295130017394811	0.015498734134694271	-0.40849091275502925	-0.41987249610341437	0.34609964678204025	0.039450933841402316	-0.35239201831670053	0.4557919050508711	0.32792508421285993	-0.7071554313856858	0.06490020613488053	0.0756399493631668	0.5400898294117269	-0.03655739567413892	0.16807579741205358	-0.468685560861375	0.29472277034987604	0.03260993848694036	0.5593329296903106	-0.24750733087387633	-0.29491716617461144	0.1474965501410413	-0.2659087267206446	-0.2644366766317038	-0.13347302788062704	-0.05887769798710104	-0.26073643576988	0.49234305329269235	0.6076164469614264	0.23368164047989015	-0.009752302890344436	-0.37673284830210535	0.7544648305401256	-0.31955115284046354	-0.2022323244726743	0.2963412541213194	-0.19589911488708994	-0.3221075545394155	0.24727489851246617	-0.35225356713230216	-0.5136203695108095	-0.5335558017222615	-0.35920760005612157	-0.014963610607343487	-0.022399904184334397	-0.024851322687008837	-0.010197383814709568	0.047065834655202275	0.1255564164050508	0.06442711367660262	0.08830011847716966	0.11314763814835929	0.13441464593052374	0.021747841001063035	0.03978854740005437	0.17031095746378838	0.10099463417023023	0.16125212891085647	6.33438481658068E-5	-0.015826692666099148	0.008500201902017364	0.0840205803311966	0.10394553079218398	0.19131741803792618	0.2507610070197889	-0.09935603396566713	-0.0032594795223940326	0.1176328098874956	0.09607259171499297	-0.026251212553859066	0.005236224070285228	0.056951320543436205	-0.023707031013642754	-0.0028202714407191895	-0.09768902182295683	0.02239242089790196	-0.02065163014837471	0.0036966420899539345	-0.2386958097166994	0.2355451736734312	0.07510042291062953	-0.07775992238827721	0.13651444439476645	-0.044430468829068565	0.2851450669667944	-0.022221203262423033	-0.053117505380420586	-0.10725044459057814	0.2669186809374594	-0.5661209321709887	-0.27160312454507207	0.27868068299294035	0.12653421542844856	0.1248142147712349	-0.2691929761646664	-0.05433191399033857	0.4728488783544942	0.056270767509820234	-0.4339152727746576	0.00963163458054781	0.48345897269371507	0.036600870163246695	0.22636598197392374	0.25276574991411566	-0.1520199616820651	0.12023104024866266	0.07410604454775431	0.21954643367481916	0.22345100652445832	-0.4743446879872103	0.16521667390606484	0.28969482655070244	-0.14224486791450816	-0.20259968617641325	-0.1614600042961076	-0.41758479454809944	0.0230647436852388	-0.2861106890723302	0.4465700055815268	-0.3224900855801235	0.10411388801417767	-0.3342291921936935	0.39031185968581533	0.19231098245197378	0.033423385220772484	-0.5423790952378056	0.42739610674881096	-0.6249719267810071	0.4723537846988317	-0.25511887244104947	-0.3515834319650681	-0.39610782967960456	0.3607001491332848	0.09603324425069458	-0.4956620486271284	-0.23573199084440064	0.4272550865484795	-0.21278566038484045	-0.3914626623390351	0.32691217029935343	0.595766887914282	-0.6914056791737099	-0.2754550437674075	-0.007629151244624419	-0.02629929291091303	-0.04957791280826872	-0.03896817858008502	0.038013777752010265	0.12597729888101142	0.10248267324915458	0.08278236232229429	0.07787688770297145	0.08471328178373694	0.12029294549518672	0.026743402654548158	0.08366549938438907	0.17021738222696103	0.09594954534719376	0.08874499438689827	-0.04022715971413908	-0.006125643784484138	-0.027440648445400714	0.08023323123028013	0.1432391747031758	0.2347675538428309	0.17198210948681772	-0.012915204983856062	0.052987725630069656	0.019590237224151437	0.18944536129361356	-0.08608082353896707	0.01953632353100689	-0.07938060897748028	-0.02325311781470762	0.10606180950092695	-0.14966892289140746	-0.14041528761388747	0.1170117259902462	0.13945261353854066	-0.1703815721539616	0.12184723838769909	-0.0738422595468561	-0.151102837333236	-0.1265461630915814	0.4449884226886933	0.02561409126420235	0.4017285856538621	-0.3221097675399478	0.0029655203503875173	0.019864760419446802	-0.1085210650274459	-0.39738028030824546	0.28337939365556164	-0.1736697124104094	0.20078305640960883	-0.33358448633074755	0.24518547301185545	-0.25566880850002877	-0.4767734629311493	0.004880968235601772	0.7223945899605785	-0.16380580061555203	-0.15044658974245845	0.031167931276588564	-0.34820582362753877	-0.027395591744363307	0.1074928737965857	-0.437680297330236	-0.028742626294286765	0.23918994867161672	0.3333745719473473	0.28786115594641115	-0.18721833036961621	0.35645392379255175	0.2983785220279756	-0.4270182697473627	0.38472848324943076	0.05962295488215743	0.01167276232318067	0.5462035450082983	0.2976996577400047	-0.47193315183580914	-0.11551560497132496	-0.25032843401550425	-0.06701583306028894	-0.5091878835124256	-0.29119089140811866	-0.23778675380047176	0.40872994695885706	-0.16697515087284567	-0.127014863451931	-0.24471473907263708	-0.2875692406871994	-0.16812751042561236	0.3936058200033232	0.3303952666214215	0.20949145190644697	-0.5345725415979983	-0.017829996392915912	-0.06071894886262548	0.2432618644358764	-0.22969606206759363	0.07482847283856209	-0.01784311565823321	-0.04158506864828616	-0.05260405538456201	-0.034195230036858766	0.028781513612636745	0.11604754928358378	0.09808831033629084	0.08819865510842037	0.09937011861976154	0.04346881427051456	0.060539668132173825	0.09635129247875897	0.01985489228072562	0.10371051707660235	0.16184708962460584	0.03886714128638564	0.07240378368984625	0.009742199960081062	-0.024629015393709538	-0.023939069756425603	0.08391222679588213	0.14293114675440458	0.18411718809918107	0.26471270763076266	-0.025692211333189396	0.11195155935784766	0.14658496657979786	-0.012412375509733316	-0.26623422996870677	-0.02682032618888924	-0.004143410106886728	0.019052732730370277	0.014248406165673203	0.19316630023061385	-0.08336017356838207	0.15729258863692794	0.01058756165559683	0.17207837774712453	-0.22403058881802407	0.07237528500638152	-0.143208517696625	0.10964171917078855	-0.03143590821946845	-0.37128924716460765	0.10257588530982316	-0.3787565285529609	-0.12661032490189128	0.15597161338146343	-0.2204110834399714	0.6674773342851	0.1422038603899471	-0.4131173054358587	-0.5418853642689951	0.3480216513876098	0.033988225836367916	-0.12554987638403844	0.2934676728062982	0.42734116246644394	-0.2069468602117667	0.041188764854931025	0.06705321597757208	-0.16866883448441927	-0.4923743399607627	0.4090773073240709	0.328446892064303	0.17821803826300675	-0.3891505597205647	0.37461635940812427	0.25206379649107763	0.10846034490785846	0.41759357925533663	-0.3525515171568759	-0.029922779306023262	-0.5239025134964865	-0.16861097783935747	0.48425916748058523	0.18547434566200666	0.29096584325933716	-0.08808240494179795	-0.3872349134700224	0.040986187330831196	-0.35118307271242744	0.5244660147333707	-0.35820893181765023	-0.4930310362234439	-0.0958734537301419	-0.669249420513632	0.47958096596390276	-0.5645404390329737	0.3148813288540278	0.11894140547130314	-0.311002776161229	0.5684601474799162	-0.4218884028681236	-0.09771413575008302	-0.09941630242234005	0.5892889962569775	-0.5469836324237702	0.06732822544146477	-0.04886426537012936	-0.013384042586707359	-0.016499435331216488	-0.050315857495690244	-0.030804431598228724	0.0020788962794916683	0.06582131787627254	0.11525187253050502	0.0953159106516833	0.08275838444318503	0.08272591688067511	0.03214515507487418	0.02108717395105255	0.0696511608907073	0.03908715494612467	0.09083850822210444	0.14566957690790408	0.004159762920192795	0.14203411647874578	-0.06498744847008907	0.015185218743778787	-0.006768937242850008	0.08872179146249719	0.1478070699825795	0.19660547915522508	0.26995438006744765	0.0038088439047550457	0.03435813376865265	0.04164385447022281	0.04210107458472963	-0.04987447863864509	-0.11609409726976826	-0.09202690727930327	0.04108753340615131	0.14773282619178318	-0.01358684526480276	-0.12782456678221915	0.035851717761104594	0.2234144501548044	-0.02193828739676228	-0.19779804788784708	0.11513380836494545	-0.08657698798730305	-0.3559242881912829	0.27347443566380786	-0.01425184217859288	0.27312668461974987	-0.26346899175160166	-0.3758333633802213	0.25570438495193615	-0.04346633486047033	0.3828507665526531	0.4847901756707758	-0.4299085475962802	0.2752083148123599	0.082851551060715	0.22905342387332253	-0.4889145030250629	-0.07782929652577752	-0.32151915623610866	0.45377284973051335	0.3890139086035922	-0.365729400505666	0.06694849963484037	0.059737175806878096	0.4157010724340721	-0.08788049596232454	-0.03490740844850949	-0.2413156677074886	0.07509050886207398	-0.43984078578243846	0.6587932083722514	0.10360426122890493	-0.27325569599624416	-0.29886887130573664	-0.562589335257017	-0.27698223271815436	0.053662155969592965	0.3159420636443322	-0.5296491862542899	-0.46310844208770946	0.0575627225154309	0.212375546446813	-0.17050305253565823	0.17203992425373713	-0.20463267077483696	-0.3672076323370034	-0.11767476004457897	0.5736077575127119	0.4416042576151974	0.07234478627903067	0.5642328008690067	0.23564693279853632	0.0024632921326897027	0.5852052785412827	-0.0012735227979102607	-0.5377321196904242	-0.2242370304812165	-0.234919314872884	-0.4093077554449779	-0.3497776038631796	-0.01111929140879103	-0.008202176445295141	-0.057724348242450076	-0.0340197213280136	-0.009921687616079942	0.028177891948766683	0.07552387907372576	0.1025333358671988	0.07039580819822037	0.06373547312577148	0.058854009765168455	0.03613655952318121	0.02108960776920497	0.0489315750494556	0.053361855558163473	0.06277678456279194	0.1218337865172495	0.06088228135722488	0.06516922669105092	-0.05825483337657526	0.01213983983881448	-0.006684365602892646	0.0964505048527114	0.16338421996701172	0.2479993914624171	0.25435087643234483	-0.1223749198823381	0.1318766484329878	-0.11878274812715195	0.15538496578661173	0.10010768438719658	-0.12909620939383049	-0.3316062178575477	0.052728718687286624	-0.1018497282880567	-0.22564215911081165	0.06607804619523498	0.24076356097394672	0.25002086737181334	-0.05683744982046329	0.04275081501760276	-0.27244052297346083	0.1806782462324533	-0.4480689493183977	-0.0034416077110652143	0.046113787695602704	0.3294480270075678	0.5045851559236164	0.015637445142010264	-0.26620175353025977	-0.20652843501336843	0.23218854208542086	-0.5127846602837245	0.07100697995929942	0.12559662498208565	0.2740717064890552	-0.04573769496165415	-0.3456934534894032	-0.2171680757850366	0.11533180815741309	0.057783045604882004	-0.09351691046899907	0.22293051651974696	-0.29182434136986724	0.2329273042657097	-0.20765753223830793	-0.10938056271375882	-0.3838388635951589	-0.4824158052565389	-0.5575076568891317	0.46816899545399115	0.26375729198817666	0.07772339004031242	0.21217572416039124	-0.3480552604207731	0.3365614565135095	-0.012200485369752895	0.20425303202853343	0.4747493803568755	-0.21335086522200114	-0.44528076306434844	-0.2882322724861851	0.20350182004574657	0.040325325207581565	0.28156335941162947	-0.28453150772880825	-0.08766564396161909	-0.020459350292697256	0.12225970948202004	-0.03885746314793045	-0.27314943670743336	0.14361506547048153	0.07810174940846523	0.34702772881116756	-0.08689565387409595	-0.13382987617160055	0.2856355225618655	0.05920750435597181	0.2137812721663105	-0.18459096345902398	-0.016085598571130684	-0.03150096219039313	-0.06282976586479648	-0.03506044629027994	-0.021916184374751582	-0.006109508927367874	0.021004338361689228	0.08486659138378859	0.07493613581543572	0.054230784995331155	0.06903993175741628	0.04551541261538305	0.030048182529457665	0.01814983756041936	0.04961053571655007	0.028086916545832834	0.05193822639587289	0.16204570689445272	0.0029545342615663766	0.07639715100350687	-0.019883517212472713	0.01984321432957791	-0.0251726444861951	0.059332719474159426	0.21175726746403012	0.2175551614435045	0.15892310321190106	-0.12180563373603796	-0.02426688173525118	0.18807166012997337	0.15818935458814992	-0.17797192777330173	0.04613341546685643	-0.04678086353887814	-0.04309326431576594	-0.07078648863955533	-0.1513890477998805	0.19543902630012955	-0.22465311887431547	-0.15020121443931073	-0.07907106412463408	0.2775287693312353	0.6385614859432879	-0.4428426562327219	-0.5745802923227339	-0.44565132519633	0.3559845399933815	-0.1289864238579652	0.41669217439321476	0.06577515484668207	0.03549650962199296	-0.10306004461081045	-0.20608080415420243	-0.17629261155728188	0.2675982968365648	0.16278899588190565	0.16696364305608388	0.2681210470050576	0.18448910759252324	-0.2473674381755244	-0.314136084335195	-0.1537211179359572	0.3629479817787616	-0.17593774010933125	0.5762359648291234	0.356774718303081	0.016144144895694542	0.36134939483247736	0.5733576854940776	-0.3738203230040053	0.11254070357146384	-0.13622512024762037	0.23795977984366035	-0.7250242157525152	-0.4205640465425378	0.22795007073112158	-0.0707923902005556	0.5954937447320756	-0.24094263841812427	-0.6020103643068242	0.4043397200597153	-0.29314480899821915	-0.34209099278084176	-0.053884003661189624	-0.12464999233173123	0.23267016616321756	0.3052473212252154	-0.08425615491303663	-0.060961707623561956	-0.21325346457177907	-0.34100105077171605	-0.19124479060711233	-0.2773838603522935	0.3452293492283009	0.4216240619996742	-0.47010020654408674	0.42774331812346134	0.02962384861054389	0.10616195791799055	-0.3992502932447875	-0.005381652544266128	-0.02404724199492936	-0.0615688665545858	-0.035461088766444056	-0.012798443567206781	-0.004275738524954835	0.019805538452977098	0.03919991262318618	0.07937554070239237	0.040669455973454276	0.06093310911948567	0.04090703983243355	0.04163608914877043	0.013466298573574665	-0.007470400897169861	0.02241588308480375	0.030387702390430947	0.08771164085362948	0.14498859077763598	0.04431217347169405	0.08949782791453464	-0.05379883193039282	-0.00781272670841864	-0.023683993945055506	0.0843648714402509	0.1975516432301152	0.16742047490352513	0.171832184892077	-0.07906625649450694	0.14824296575540666	-0.01583948514901457	0.05756271735777665	-0.12039953714864864	0.15606509005008365	-8.541966927904877E-4	-0.14177540653726814	-0.14938789270935734	0.275295033264075	0.37783840859409135	0.038583048561343494	-0.2923353867458112	-0.3022077912387842	-0.009023001803513647	0.2773230668840045	0.30060385368513004	-0.0334781502440606	-0.0992208962170506	-0.7117583824670459	0.016201278329327214	0.5068305995214583	-0.2490324399982134	0.1329505958167445	-0.5249755397778967	-0.12758199773165194	-0.0017727884249527008	0.42467886079715883	0.06187618410582182	-0.47532621764627764	-0.4481392418688599	-0.2467729325903884	0.07211930292659252	0.2021725551893044	0.5080361154608525	0.4311471986629267	0.444428013802462	0.009335861750054082	-0.058235850332896286	-0.3042158471190257	-0.11999792809590583	-0.3541353714779663	0.465312181357089	-0.3023840893097669	0.2740588620219081	-0.08756750239311932	-0.507529674224258	-0.5832829734639721	0.3978598465977963	-0.32470399455010884	0.0984630302299649	0.0029722173496297397	-0.04068289561180946	-0.5529930231953792	0.4314965721190423	-0.2900424888597387	0.7079832170373621	0.24102781432545134	0.3320042409708095	-0.5915647810624852	0.08217718893570869	-0.10208501737857044	0.046198340762223906	0.3978259692703454	0.10336412062317227	0.33718786169399934	-0.17633362106546116	-0.5790580238997176	0.1873040852632211	-0.07305777719240097	0.6157881272307282	-0.34053111358658517	-0.014372757031240992	-0.029889995682292874	-0.06029032358541063	-0.04816390075536964	-0.012332245831417872	-0.00988953863834401	-0.006808467849343412	0.030039551210067142	0.048396501404149785	0.048045101433418454	0.05442894076473391	0.03659923869903282	0.03495478100865404	0.02843505530876849	0.031703675893052334	-0.002829986648314257	0.011084617284650678	0.040968088670172625	0.0700152588059081	0.13476356400153683	0.03687912833847771	0.05738210196431293	-0.05329538644346426	0.016642181734025322	0.01608586945072579	0.0832368605538204	0.10649794489530834	0.22940368967308544	0.16538343556476434	-0.1115369258145471	0.14076912480159254	-0.07404405563611405	0.2532168353360408	-0.009826322448930142	-0.27804792400881606	0.05515929796245528	0.203470165394209	-0.06753312084436155	-0.297548330391036	0.12633680535532038	-0.09289307163644202	-0.20996369545069934	0.18324833566136137	0.05038289016821085	-0.24904558425714363	0.33573286221218146	0.09388041551541815	0.26469978649437126	0.024767247417604926	-0.2789447804457634	-0.22678723930243305	0.3223980359212298	0.2859018993652794	-0.26256832902103416	-0.22935884162751038	0.08787292430113078	-0.4310126406059162	-0.15951711776207303	0.12207440544556274	-0.07812487003649214	-0.09975324266020368	0.03430214920287531	0.22477874629731784	0.6016842999279611	-0.6324268905224284	-0.2656255135409453	0.32386515629929163	-0.44658820146886585	0.27345469466992584	-0.5364504301675486	0.34484129803842384	0.26923171708814325	0.1318069809713808	-0.21007686440338574	-0.11779459607451177	0.31779443939999136	0.06406098627977401	-0.07093598154201806	0.03352055058036943	0.13362381298536066	-0.17997755681561586	-0.10928396770049237	-0.3087069265187021	-0.36932446874327274	0.3014900068713228	0.006677059391582816	0.33087514312244876	0.20129806991500376	-0.24988337172059685	0.5363505865231325	-0.08503206254694722	-0.5130311703707776	0.258833872600003	-0.05866945713711723	0.16974269094379743	0.34844863459107317	-0.3977114286580138	0.1570111459951488	0.3325205221949176	-0.3367644519065867	-0.014854723685505885	-0.023172351067571935	-0.049934779823202595	-0.0501742748035828	-0.006761406547078265	-5.451004397044547E-4	-0.007740340445634608	-0.007574131819718949	0.036886842023033724	0.039893331711240515	0.04539329588430369	0.02956487337038779	0.03116055807784986	0.03541444966074911	0.017791751510720752	0.004268788108916707	0.015377576218416475	0.017690090685366283	0.019564697214976674	0.053570940932481215	0.16501436971919237	0.052066864342106806	0.07999318867968806	-0.09006636289151385	0.006603471901946548	0.010868773958015502	0.04489091061927059	0.19326917477275654	0.17138072448956324	0.11112277745077428	0.08482182681834252	-0.13956662641350695	-0.030819196790500988	0.13965194689729923	-0.05972629024339054	-0.027997620721716	3.359080059500456E-4	-0.17139053613788924	0.06783019540192273	0.04607155871425053	-0.3682100360405259	0.22761822053281244	0.10274284183559394	0.07994410332062703	-0.1183967708600795	0.3550121324722497	0.1341006507990394	0.1575320479056201	0.2188141096052429	-0.18074312849240545	0.21367467385503372	-0.3572397065785097	-0.1895901606753195	0.32184523905489976	9.59792280735876E-4	-0.006513207921566017	-0.014163925823483275	-0.0662804980200869	-0.0716686835921972	-6.380464265144791E-4	-0.25028402932936983	0.2746686034745537	-0.520563353931943	0.1766904637882527	0.3159988583890314	0.3588081354234199	-0.42067567047676824	0.6851146863723795	-0.47373464149398636	-0.47824289749026344	0.3043603510673427	0.30787716675819693	0.3828418880141301	0.08426082594538982	0.5697398442351319	-0.24387906401226955	-0.4414200142071505	0.644161101561902	-0.43339754414567366	-0.002879935204479	-0.32296418585770176	0.17714049532730872	0.7540427740345907	-0.00304244262532444	-0.5243137050446635	0.06835161827696681	-0.3893680108001172	0.41102702559646437	-0.10867059158095184	-0.08502238448566948	-0.0484009838001492	-0.3969582007372975	0.1630489980508709	0.4305357498989228	-0.4124765450180889	-0.25280194097660746	-0.043702960849301746	-0.25323030015644327	-0.409014918451681	0.10123933877570024	-0.009010067545589293	-0.02872324110560669	-0.053989945026405896	-0.03953690295818191	-0.013696755165554837	0.003091703786618546	-0.018439797117143438	-0.014745271292800392	0.014087545084423484	0.036899565830590265	0.04749704170394179	0.011615366989184762	0.048568630182519786	0.0376174774424659	-0.005776578535818317	0.014392074930341245	-0.009026597553735716	-0.01465291395217382	0.02023503067868204	0.04677493490679197	0.08884125270986347	0.17988933612720637	0.05118802981821921	0.027233484507162276	-0.06712022461687508	-0.014065280382252993	0.025560225615910252	0.1240200858373303	0.13673799926886118	0.006519543749368067	0.2530576282513828	0.03856292449789875	-0.27637706647896004	0.03223826387798655	0.21546001443911844	-0.002331592178103543	0.024337974379034493	-0.17091253229714456	0.20954767346648015	-0.08474586095868551	-0.16753734511248386	-0.36204207812017014	0.08349255577438633	0.3479769478800237	0.0485987684602885	-0.1235502821390517	0.04173635769384873	-0.5218104705903943	0.15738985354839352	0.11991499401739232	-0.20865791246490983	0.03039993254651506	0.12829311708564312	0.48477905257877935	-0.3417134031445378	0.40015262572251126	-0.2871337107089891	0.26218485550248904	-0.23669726123834633	0.26444805195332644	0.3942031913172933	0.3143219611575844	-0.4256652631842807	0.3343561315280764	0.3307538912852824	-0.4517364378377779	-0.6935294168956303	0.1282886859380402	0.028370330450980568	0.23026648120873539	-0.4310530697012927	0.3242955289581896	-0.0031801316439329257	-0.2995258886192209	0.23419185648778237	-0.03448301559967935	-0.15766429240008364	0.262272671126017	-0.43518065103871445	-0.1897589409057552	0.20732191709266415	0.4154556270131049	0.21585260802010725	0.1417918815963708	-0.039381117031793686	-0.6100952742142024	0.2761208890181591	-0.2496764605821681	-0.3825470288987259	0.19115433382511743	0.28209888410880246	-0.09902235766955993	0.3537237845100914	-0.42731902677864814	0.26610558792646666	0.31278856072013766	-0.2722062557900385	-0.2470762544770304	0.05028597681361382	0.17284506741750724	6.557874977414227E-4	-0.03467428334958502	-0.04765484922514181	-0.04220022715505558	-0.00935539135770444	-0.0062086692675705595	-0.006928524991233875	-0.017025100717820277	-0.008585978986518833	0.009981936073353142	0.03279662064315691	0.027054641411347426	0.0289520578673742	0.021776892486057395	0.03410876371723455	0.01044818605983087	-0.026542116936598057	0.014408685682966651	-0.01726199927130617	-0.01036384928413141	0.058241114958501435	0.1125889483842018	0.1442493549744546	-0.0054879277936428815	0.037365284087856575	-0.034026618613981006	0.15088971281281333	-0.06712025193825043	-0.0014479556117609998	0.3513193186385742	0.06051425207805279	-0.042020577258120674	0.18266368171541833	0.02529446637389222	0.1764176547195357	0.03677886003094409	-0.08407962765128486	-0.42392737328559293	0.3337755937949483	-0.1423654160407295	-0.02134084335415812	0.3410951522237357	-0.15393875815512054	0.09693888376404168	-0.30166096812283066	-0.40948590094093934	-0.3076374232519147	0.2907310358635612	-0.07190949226301088	0.012118303139057762	-0.029284500179873437	0.12930143686638623	-0.2082833262022092	0.5850657723333835	0.5871775716381643	-0.1903932427027456	-0.4043938614877164	0.349545468122999	-0.08547119265414901	-0.022809367759995605	0.4060252047719738	0.8268109261801772	0.014864141988920531	-0.4043578503518332	-0.452240647248332	-0.048446003314827346	-0.03253767530959176	-0.10366586599235504	0.398636424764692	0.16187849911624655	-0.5321093047614905	-0.5700553158904238	-0.1082018659534448	-0.2926479607271302	0.12703984903473334	0.4017171878509068	0.39333391668586465	-0.02228770120030527	0.1313938801168758	0.31991037109920617	-0.2410602004751066	0.42734173659075053	0.35379923398038926	-0.024292928484400577	-0.12732554668679705	-0.2948141717257826	-0.01250225904344611	0.05860238282681301	0.12774192530575706	-0.5821552083834185	0.01786495572546628	-0.539352763518536	-0.5157836835088818	0.25454808629717574	0.3029197282835714	0.15018658214174005	0.1395552429541667	0.03571126976977191	0.12270558351301801	-0.23643767456277273	4.2620582748710166E-4	-0.027437368899038105	-0.02972234213500414	-0.02942732448562671	-0.00717596884149022	0.0038634289998286855	-0.0019750299114865426	-0.010562013045613714	0.0033673061534638987	0.0060218749173426645	0.031528344336966635	0.009579326832641141	0.02506239187549662	0.015984197281544137	0.020391972016797592	-0.007558506909586405	-0.012887681978083845	0.011791230799704896	-0.0019573817098249274	-0.013369632773572972	0.04752600186119462	0.06852249730464662	0.0752742043177665	0.16363543444516057	-0.0018616237194665688	0.06156832333068067	-0.08388752307602101	0.14997269444574607	-0.0783467636683627	0.11510744052333632	0.026841413645151392	0.07452823682249204	0.29659745216659233	-0.11695345164216671	0.08605262686485157	0.30789457401272624	-0.19338010029334693	0.08697248363802496	0.014592110173627817	0.1590000578268368	-0.10570445244099186	-0.41096449180160405	0.16073420826804766	-0.16175050531468171	0.4930125038662719	0.007466451987719768	0.16329169184034423	0.33749888412350754	-0.2624910373388143	-0.2826661963542102	-0.4238512714398736	-0.3228518501375823	0.2627328448011577	0.2612339073818425	0.5493072097814257	0.3369659880647437	-0.4781324479120847	0.40135052110733554	-0.021415356258299614	-0.03302721784451032	-0.16753383073216657	0.34239098517508276	-0.4599860950405956	0.06628047750189973	0.6193442221544885	-0.3257304867263859	-0.3526355461971762	0.1950605795409794	0.3365760235708907	-0.5244511045606456	-0.45270853246256815	0.11595553146195314	0.08257583272218118	0.4036353871278815	-0.1834134957422743	0.19491776714967476	-0.5475494540562967	-0.2606409361767474	0.2028672850603548	0.437832058892485	0.4539073029205313	0.4939768538705757	-0.5107046281995787	0.43368157593973583	-0.4442556731506242	0.03584095663881609	0.1492036719131971	-0.6111043793478423	-0.39825576423788805	-0.14133327522478692	0.034994884912091725	-0.3627553542233767	-0.08618736065134557	-0.19479595407732822	-0.304235438020515	0.25226660867447137	0.32885072414319005	-0.0034197795551982753	0.1553449655114833	0.290705579755697	0.0011366340109000876	-0.026062240222977814	-0.026599620953635175	-0.03308158345174695	-0.003215191116456968	-0.011536988054603214	-0.0015968532157580417	-0.01488789167811414	0.001490698734620289	-0.0016311019812214615	0.014639875687129874	0.02389570198360966	0.00534295024369027	0.0190795109329684	0.018877429414687775	0.014260183622859812	-0.004477425862578741	-7.409116363967228E-4	-0.01474156292502898	-0.008196405494199371	-0.004474252153153996	0.02992946249137203	0.04734087336773362	0.12831219968745197	0.18698121741145254	-2.1585358428567966E-4	-0.003303801562232683	-0.07184221303602241	0.0596315848571188	-0.024992407550652723	0.07514246021668948	0.07650514941343244	0.327372716424801	0.11559082016234067	-0.11934526249622904	0.19615053966835985	0.27574041613184747	-0.035543058430801695	-0.16610009239979873	-0.2054737872958039	-0.25574396116369263	0.08496496942453764	0.13504266577365126	-0.017615916170534974	0.34973366942901934	0.2854217801175584	0.15092712825004717	0.08106063525423834	-0.2332553871939801	-0.17063486223475388	-0.28282099923496834	0.32415946996449335	-0.1385533346464867	-0.4177617997927175	-0.3274911152162937	0.23141088065112594	0.1016206589742748	-0.04544837430784336	0.1775104924531956	0.0530854151887476	0.20666285550378366	0.09907110873616615	0.2734078643751494	0.3207140551634035	-0.4311940496208984	-0.4581364322882893	-0.2349855817542649	-0.14531354957585396	0.2965321273258198	0.4923343681794442	-0.4357987265786337	0.30122051786137866	-0.2695757479018896	0.5825033715206351	0.14075114804601188	-0.4472528938109659	-0.5330875713378406	-0.4994067116931957	0.4517783533834304	0.3755518258562455	0.19254446431093444	0.0853238122671307	-0.01312043846833576	-0.22607606412247536	-0.005502003149480114	0.10128086900733929	-0.1944758237560098	0.38648745801854134	-0.24335200212811517	0.42259318414963115	0.5352143291978484	-0.12074357781695226	0.015052095581069827	-0.6084508667327935	-0.5044802919511724	0.3086475734450687	0.11968301148126989	0.07751873444651715	0.06372765920862444	-0.36773145827868947	-0.00244358224520004	-0.018673662725873078	-0.02155587295007781	-0.01776927234180695	-0.010127127636620404	-0.0013824643573933728	-0.005913609070027451	-0.01501592975804091	-0.002335548335180476	-0.0054490628558966255	0.01661561750336562	0.01717755683262327	8.95336192172206E-4	0.019668357874527566	0.013359846606513391	0.006688584409627508	-0.010958411266060519	0.005086421005534189	-0.015302152513581664	-0.01969742737536052	0.034490772366779596	-0.009538852709113324	0.006724633819574743	0.10967051104125426	0.1362157749961712	0.06053251675647772	0.004544047477293429	0.06391554823632872	0.0813542559541977	-0.025673549951872914	0.04729288095962177	0.021725690850805186	-0.15539858046879984	-0.023298075277262388	0.28352293220228353	-0.16794668968601595	0.12978037708686466	0.045959132422248306	0.42186424277898465	-0.07564463124314783	-0.163700179730437	0.36563840784136553	0.020886793063858527	0.18138179044990607	0.045930466656517246	-0.596166089917539	-0.31891881795198257	0.4530488225520355	-0.11665080697756237	-0.23618610567354556	0.3624660208313725	0.16939378215171835	-0.30939286532716953	0.25039136875901913	-0.21362323588920598	0.21017471302002924	-0.20163649220895624	-0.24115638283898966	0.12839626564184178	-0.0497571808117396	-0.10711876563521011	-0.08021091889907832	-0.4345296818177064	0.060477245173120704	0.2374683734934559	0.3512030056360358	0.3953313440982097	-0.06316336720751423	-0.3367384239751374	0.2417540273303139	0.0368876550073507	-0.28633252005800147	0.19841489159501624	0.08817333974550016	0.316206082537075	0.1814464409198955	0.040431829164151945	-0.2024410424862065	0.2004754048132141	0.2431837257990061	-0.19966712238786385	-0.6018030701584035	-0.27695702544146006	0.3280627487437722	0.3093080672047609	0.05689866598345436	-0.17947673924872504	-0.2818298294602058	-0.6642239646951524	-0.3438833794672195	0.25629324830574945	0.4933758891191272	-0.07264278943524935	0.1083966097922898	0.3255709758835117	0.3582503656627171	-0.3956313053998148	0.3473166516082522	0.04930270813640564	-0.3299906856923807	-0.0035019185870149377	-0.016903423809821853	-0.010694708899250352	-0.013421666350639782	-0.008506479481798727	0.003612203965598879	3.740044912176905E-5	-0.012083729839383233	0.004408052477653887	9.422606521241371E-4	0.007669891597873564	0.0024757494863351464	0.005786177884074961	0.006357094424580945	0.0016389811759890147	0.013327231530216496	0.0010557959381677084	0.008549970478123375	-0.01006470007708682	-0.01113413137079263	0.0024536184344985633	0.03240996602245527	-0.022315980585701514	0.045570830423387096	0.031085645012869013	0.14696794781232098	0.16412222231680773	-8.513156606017704E-4	-0.10460499550681737	0.034457324468127305	0.09510389575127279	0.13039543557655026	0.013672136061025828	0.030030496454807532	-0.13054951737551063	0.021898399752209235	0.3054732509668927	0.09075069033884457	-0.005756070801299165	-0.0826282927728459	-0.05875237213176204	-0.4554699547725752	0.41692876841993076	0.18197989466610864	0.026670622118073996	-0.37982532640498673	0.14447789089004245	-0.030695082922384608	0.04241094932564755	0.2012170783520285	0.3298426215013246	0.10571760016593472	-0.06531534982710464	0.3213692935400889	-0.47211865408040815	-0.15587559430497203	-0.023508999082113565	-0.12014289498351617	0.030356429822335978	-0.002557773771122441	0.03444502791922807	-0.16439202465737804	-0.63858852618098	-0.40784007414361856	0.5296771680021282	-0.10532720551311453	-0.15776651772184327	-0.17160133889171023	0.35423122029538884	-0.4106979474199817	0.27884181985577716	0.03526825988608341	-0.23410704228824236	0.3645578368882091	0.6025242757065679	0.4642320844173622	-0.3305255246798627	0.026015031782548683	0.2695657851331896	-0.48936989761612715	-0.10520108979540019	0.028987622329814732	-0.3518010090084447	0.6941290833853393	-0.0560670946863633	0.3329307876546297	0.2301672036027539	0.24282122598715677	-0.38862517551311093	-0.030756016022703236	-0.12651414366862074	-0.569285057928052	0.12101575565433302	0.2341290042288915	-0.2156398116053926	0.5538845927923727	-0.49672134772112597	0.2510979217661486	-0.31528706865641204	0.33314713323134343	0.0013172800537547586	-0.01387875503105703	-0.017019435937787118	-0.014901154729888004	-0.